tree
version=v4
num_class=1
num_tree_per_iteration=1
label_index=0
max_feature_idx=17
objective=binary sigmoid:1
feature_names=turn my_active_hp my_active_energy_count op_active_hp op_active_energy_count my_bench_count op_bench_count my_alakazam_count my_kadabra_count my_abra_count my_dudunsparce_count my_hand_count op_hand_count my_deck_count op_deck_count my_prizes_left op_prizes_left powerful_hand_damage_est
feature_infos=[0:50] [-1:210] [-1:5] [-1:440] [-1:7] [0:5] [0:6] [0:4] [0:4] [0:4] [0:4] [0:36] [0:35] [0:60] [0:60] [0:6] [0:6] [0:720]
tree_sizes=3347 3459 3457 3443 3438 3452 3449 3453 3462 3469 3458 3462 3455 3445 3467 3464 3450 3463 3457 3446 3476 3470 3454 3452 3457 3466 3460 3462 3458 3463 3452 3437 3466 3480 3452 3460 3459 3459 3462 3469 3468 3451 3472 3450 3440 3461 3451 3461 3437 3464 3469 3444 3452 3478 3451 3442 3456 3471 3449 3479 3454 3448 3441 3447 3458 3453 3454 3454 3468 3444 3481 3470 3467 3470 3433 3474 3470 3454 3466 3435 3460 3490 3456 3443 3434 3482 3431 3449 3479 3439 3432 3456 3458 3447 3421 3437 3423 3421 3440 3437 3443 3455 3429 3431 3431 3429 3455 3425 3424 3462 3426 3447 3448 3446 3425 3433 3434 3400 3438 3447 3447 3459 3478 3451 3433 3455 3422 3442 3431 3453 3428 3408

Tree=0
num_leaves=31
num_cat=0
split_feature=6 5 16 15 11 16 15 16 15 15 7 16 11 12 0 11 16 13 16 11 16 16 16 15 15 16 4 0 13 11
split_gain=1848.17 1276.4 642.797 905.109 470.097 528.169 461.238 812.397 373.403 269.78 257.988 253.214 222.419 216.881 209.36 200.123 252.357 197.342 181.222 179.3 156.871 146.531 137.012 137.631 109.772 96.36 83.148 82.9536 82.7043 91.1174
threshold=3.5000000000000004 3.5000000000000004 4.5000000000000009 3.5000000000000004 16.500000000000004 4.5000000000000009 2.5000000000000004 3.5000000000000004 2.5000000000000004 5.5000000000000009 1.0000000180025095e-35 1.5000000000000002 11.500000000000002 10.500000000000002 15.500000000000002 9.5000000000000018 2.5000000000000004 34.500000000000007 5.5000000000000009 8.5000000000000018 2.5000000000000004 5.5000000000000009 3.5000000000000004 4.5000000000000009 1.5000000000000002 5.5000000000000009 2.5000000000000004 9.5000000000000018 9.5000000000000018 10.500000000000002
decision_type=2 2 2 2 2 2 2 2 2 2 2 2 2 2 2 2 2 2 2 2 2 2 2 2 2 2 2 2 2 2
left_child=1 4 3 10 5 8 -3 12 -1 -4 -2 -6 -8 25 19 -10 -17 27 -19 21 26 -9 -5 -24 -12 -11 -14 -7 29 -26
right_child=2 6 9 22 11 17 7 14 15 13 24 -13 20 -15 -16 16 -18 18 -20 -21 -22 -23 23 -25 28 -27 -28 -29 -30 -31
leaf_value=0.21260370467990417 0.15450608952247885 0.28629428311039262 0.23175067768918656 0.12966748936523748 0.16715291424512835 0.24277930509979737 0.1379788643450941 0.20304787017954173 0.1242203117046797 0.1753001156720134 0.28049271717098934 0.26325522266068463 0.20901294206178378 0.14258166785742921 0.11045581589283196 0.11883524837782858 0.2016773502838089 0.16687796712189956 0.20966889531242466 0.25861895617323583 0.22976532923007639 0.24474568722420417 0.20054455012119932 0.14746377503095098 0.1316137132016946 0.20782466094810145 0.14073548834881416 0.1216942588719726 0.24672512542741254 0.21498012806437669
leaf_weight=344.21475791931152 139.96088576316833 540.06108570098877 575.17494750022888 858.80592978000641 81.355355858802795 463.89862489700317 181.25676548480988 300.44607102870941 382.79054975509644 310.58458042144775 92.730268836021423 435.21406173706055 75.915180087089539 198.31913495063782 27.448159575462341 137.24079787731171 278.43808722496033 291.2966845035553 1642.9330830574036 1810.5894091129303 249.50624334812164 705.24460458755493 158.01237809658051 537.5882785320282 39.812195420265198 853.61303472518921 108.06167328357697 14.589562296867369 166.41992247104645 185.46053767204285
leaf_count=1392 566 2184 2326 3473 329 1876 733 1215 1548 1256 375 1760 307 802 111 555 1126 1178 6644 7322 1009 2852 639 2174 161 3452 437 59 673 750
internal_value=0.209348 0.223254 0.182085 0.163452 0.20355 0.197074 0.243321 0.23661 0.169072 0.203036 0.214299 0.24812 0.184489 0.190914 0.247877 0.150305 0.174326 0.210337 0.203225 0.249216 0.203937 0.232289 0.143027 0.159522 0.231575 0.199148 0.168909 0.239087 0.219994 0.200247
internal_weight=0 8070.5 4116.48 2178.79 4071.97 3555.4 3998.53 3458.47 1142.68 1937.69 624.384 516.569 614.74 1362.52 2843.73 798.469 415.679 2412.72 1934.23 2816.28 433.483 1005.69 1554.41 695.601 484.423 1164.2 183.977 478.488 391.693 225.273
internal_count=49284 32637 16647 8811 16467 14378 16170 13986 4621 7836 2525 2089 2486 5510 11500 3229 1681 9757 7822 11389 1753 4067 6286 2813 1959 4708 744 1935 1584 911
is_linear=0
shrinkage=1


Tree=1
num_leaves=31
num_cat=0
split_feature=6 5 16 16 11 11 7 16 3 14 1 12 14 3 11 7 14 12 11 14 16 16 11 1 11 16 3 12 11 3
split_gain=1666.58 1168.06 576.071 502.972 640.318 437.221 341.259 227.83 212.826 211.401 180.612 177.982 244.871 176.911 175.624 164.993 164.268 112.832 108.945 107.489 104.296 101.529 158.253 101.332 91.3021 87.169 80.7952 79.7972 79.2841 78.9004
threshold=3.5000000000000004 2.5000000000000004 4.5000000000000009 3.5000000000000004 14.500000000000002 8.5000000000000018 1.0000000180025095e-35 5.5000000000000009 305.00000000000006 5.5000000000000009 85.000000000000014 10.500000000000002 15.500000000000002 85.000000000000014 19.500000000000004 1.5000000000000002 34.500000000000007 13.500000000000002 14.500000000000002 10.500000000000002 4.5000000000000009 1.5000000000000002 14.500000000000002 75.000000000000014 15.500000000000002 2.5000000000000004 355.00000000000006 5.5000000000000009 4.5000000000000009 345.00000000000006
decision_type=2 2 2 2 2 2 2 2 2 2 2 2 2 2 2 2 2 2 2 2 2 2 2 2 2 2 2 2 2 2
left_child=1 8 6 4 -3 7 -2 28 14 -8 27 -12 -13 -9 16 29 21 23 20 -19 -7 -1 -23 -11 -10 -16 -25 -4 -5 -6
right_child=2 3 10 5 15 18 9 13 24 17 11 12 -14 -15 25 -17 -18 19 -20 -21 -22 22 -24 26 -26 -27 -28 -29 -30 -31
leaf_value=-0.10220014815272523 -0.076324306126324848 -0.040267546970614639 -0.0071326242610008812 -0.057915327245197525 0.020812153469565102 0.015609274485307165 0.032161590783067226 0.00030765101185201187 -0.072030266839686552 -0.064798766193940968 0.020720171306602336 0.072156788829551233 -0.049210455242585938 0.042492627724877358 -0.005401306461632417 0.06214516249038822 -0.0064749584516809334 -0.025015410396579937 0.060063232945061655 -0.080213684542522437 0.046126864333212565 -0.051408957441886574 0.027423489240734501 -0.01844758002731265 -0.0024107378631257211 0.07960749081895882 -0.077976130115522416 -0.036819256197779225 -0.0047905419315134572 -0.038576401420307174
leaf_weight=59.650539219379425 579.46111430227757 575.14321945607662 443.42241242527962 84.174714967608452 397.40172132849693 363.56495541334152 120.37746405601501 391.88655556738377 210.39431893825531 164.86369577050209 760.51184225082397 51.182899296283722 221.04825973510742 679.39670269191265 48.635401338338852 261.51429471373558 1779.0454339385033 138.45546896755695 1020.875045388937 242.97132539749146 1217.5882557332516 251.07619947195053 85.287307694554329 879.97457966208458 60.674094259738922 79.366943627595901 60.94792078435421 462.42872825264931 423.9831625521183 65.085366636514664
leaf_count=240 2330 2320 1793 340 1613 1476 488 1589 847 664 3076 207 892 2755 197 1062 7193 559 4153 978 4949 1013 346 3547 246 323 245 1868 1712 263
internal_value=0 0.0132421 -0.0258367 0.0262911 -0.000883452 0.0347341 -0.0434272 0.013982 -0.0145407 -0.0315693 -0.00599187 0.00830143 -0.0263919 0.0270609 -0.00960839 0.0304031 -0.0129579 -0.0367278 0.0473306 -0.0601771 0.0391098 -0.0420818 -0.0314204 -0.0286392 -0.0564471 0.0473078 -0.0223035 -0.0222874 -0.0135905 0.0124545
internal_weight=0 8054.74 4125.65 5480.61 1299.14 4181.47 2187.05 1579.44 2574.13 1607.59 1938.59 1032.74 272.231 1071.28 2303.06 724.001 2175.06 1487.21 2602.03 381.427 1581.15 396.014 336.364 1105.79 271.068 128.002 940.923 905.851 508.158 462.487
internal_count=49284 32637 16647 22232 5258 16974 8811 6396 10405 6481 7836 4175 1099 4344 9312 2938 8792 5993 10578 1537 6425 1599 1359 4456 1093 520 3792 3661 2052 1876
is_linear=0
shrinkage=0.05


Tree=2
num_leaves=31
num_cat=0
split_feature=6 5 16 15 15 16 15 16 15 13 16 0 16 16 15 15 1 3 16 13 16 15 16 1 13 15 16 13 14 0
split_gain=1503.96 1071.68 517.537 782.43 421.278 689.067 238.228 221.544 418.157 312.916 356.331 192.163 188.943 162.32 155.307 154.547 143.839 142.133 159.132 144.69 121.66 121.155 111.118 110.863 108.896 93.1594 98.1002 91.8622 91.7954 96.0887
threshold=3.5000000000000004 3.5000000000000004 4.5000000000000009 3.5000000000000004 2.5000000000000004 3.5000000000000004 5.5000000000000009 2.5000000000000004 2.5000000000000004 23.500000000000004 4.5000000000000009 15.500000000000002 5.5000000000000009 2.5000000000000004 5.5000000000000009 4.5000000000000009 75.000000000000014 85.000000000000014 5.5000000000000009 39.500000000000007 3.5000000000000004 4.5000000000000009 4.5000000000000009 95.000000000000014 18.500000000000004 1.5000000000000002 3.5000000000000004 36.500000000000007 25.500000000000004 5.5000000000000009
decision_type=2 2 2 2 2 2 2 2 2 2 2 2 2 2 2 2 2 2 2 2 2 2 2 2 2 2 2 2 2 2
left_child=1 7 3 16 -3 13 -4 8 -1 -9 -11 14 -8 -6 -7 -15 -2 27 19 -19 -5 -22 24 28 -16 -18 -27 -12 -14 -30
right_child=2 4 6 20 5 11 12 9 -10 10 17 -13 23 15 22 -17 25 18 -20 -21 21 -23 -24 -25 -26 26 -28 -29 29 -31
leaf_value=0.0031388439215604296 -0.043057804429568081 0.072514418087507318 0.021351177888703568 -0.072534789368369379 -0.052961179573003642 0.052651927693445191 -0.043687614506640243 0.032555020242467689 -0.07248315421801059 -0.053083560337826054 0.02453996710366629 -0.096196902192807771 0.064124544893921137 0.030143703653070505 0.04948654646521268 -0.036132757315814258 0.061764529627313172 0.0041605547515401421 0.022182177720626795 -0.057391770467123397 -0.0061025603953293282 -0.055768120063368599 0.03251420441866118 0.016646558529824731 -0.027130117787986231 -0.0068391240410032896 0.049764443014202596 -0.020803254612870459 -0.016845426164319804 -0.092011533683474742
leaf_weight=415.7509790211916 119.98042134940624 532.08191920816898 573.61181595921516 866.66159345209599 262.81249012053013 968.35682365298271 447.4636153280735 607.25045508146286 326.25452747941017 365.37272571027279 128.90632942318916 27.56349866092205 31.540324881672859 186.8131474852562 65.244703754782677 166.22553780674934 97.44396960735321 329.04796609282494 926.82743127644062 134.50072491168976 158.74931451678276 542.11445535719395 1595.3206076323986 379.27391508221626 160.37582312524319 305.46142721176147 102.14175161719322 836.81530444324017 460.38541574776173 46.843632221221924
leaf_count=1681 482 2184 2326 3473 1058 3961 1801 2472 1312 1468 524 111 127 757 267 671 397 1332 3755 541 639 2174 6510 1535 651 1233 413 3382 1858 189
internal_value=0 0.0126149 -0.0245056 -0.0411475 0.031117 0.0247002 -0.00568854 -0.00540579 -0.0301116 0.000101384 -0.0071401 0.0351748 -0.0170472 -0.0232098 0.036473 -0.00106206 0.00615401 -1.54011e-05 0.0102194 -0.0136991 -0.0600083 -0.0445186 0.0278693 -0.00406237 -0.00497419 0.0178449 0.00734523 -0.0147508 -0.0186407 -0.0237872
internal_weight=0 8035.52 4131.67 2192.55 3964.79 3432.71 1939.12 4070.73 742.006 3328.72 2721.47 2816.86 1365.51 615.851 2789.3 353.039 625.028 2356.1 1390.38 463.549 1567.53 700.864 1820.94 918.043 225.621 505.047 407.603 965.722 538.769 507.229
internal_count=49284 32637 16647 8811 16170 13986 7836 16467 2993 13474 11002 11500 5510 2486 11389 1428 2525 9534 5628 1873 6286 2813 7428 3709 918 2043 1646 3906 2174 2047
is_linear=0
shrinkage=0.05


Tree=3
num_leaves=31
num_cat=0
split_feature=6 5 11 4 7 14 7 12 3 12 14 11 14 4 12 11 11 11 14 12 11 13 12 8 7 13 11 7 11 14
split_gain=1358.55 980.508 425.79 399.835 298.282 211.998 185.61 181.235 179.704 176.027 167.982 154.262 144.02 128.721 125.727 115.882 115.459 114.386 101.701 100.362 98.7601 98.7289 84.7759 96.4784 80.5909 79.5637 78.7749 76.718 84.7776 75.0864
threshold=3.5000000000000004 2.5000000000000004 11.500000000000002 2.5000000000000004 1.0000000180025095e-35 37.500000000000007 1.5000000000000002 15.500000000000002 305.00000000000006 10.500000000000002 7.5000000000000009 19.500000000000004 37.500000000000007 1.5000000000000002 4.5000000000000009 10.500000000000002 7.5000000000000009 5.5000000000000009 37.500000000000007 4.5000000000000009 5.5000000000000009 8.5000000000000018 7.5000000000000009 1.5000000000000002 1.5000000000000002 7.5000000000000009 14.500000000000002 1.0000000180025095e-35 19.500000000000004 6.5000000000000009
decision_type=2 2 2 2 2 2 2 2 2 2 2 2 2 2 2 2 2 2 2 2 2 2 2 2 2 2 2 2 2 2
left_child=1 8 3 7 5 14 25 17 11 13 -11 12 -1 16 -2 -12 -6 -3 20 -19 -5 29 23 24 -15 27 -10 -4 -29 -18
right_child=4 2 6 18 9 -7 -8 -9 26 10 15 -13 -14 22 -16 -17 21 19 -20 -21 -22 -23 -24 -25 -26 -27 -28 28 -30 -31
leaf_value=-0.03240883663832464 -0.0075067360320490014 0.0028731748721666146 -0.052017074275563416 -0.087276903876309098 -0.029115995307541484 -0.001794903113293031 0.051123570290430055 -0.079976741767410306 -0.067634331767926728 0.018535160655498217 -0.069889097527162478 0.04478078376245314 -0.0038777899788739658 -0.042384821007431628 -0.060538618888276025 -0.028496226517208109 0.045937688617249964 0.046958806270152052 0.036818140423793888 0.020217321212399719 -0.025652847837008819 0.01592368989819283 -0.06122654240977754 0.059454397590747665 0.0013561168232789117 0.030646343724805777 -0.0060600779231444746 -0.018038210400514353 0.050824778241092342 -0.040617365220314949
leaf_weight=617.34661442041397 128.05039910972118 592.40767711400986 57.212595582008362 77.434595867991447 234.0898899435997 243.41607974469662 1386.2790297716856 44.69946151971817 202.16692745685577 139.86895011365414 240.65884746611118 126.72669070959091 1560.0241905748844 228.47160364687443 878.63411565124989 568.52876360714436 30.44679693877697 508.46191069483757 53.998834058642387 1131.9995580166578 405.40426558256149 936.52183863520622 127.99590782821178 39.525660246610641 195.33947882056236 998.68308731913567 69.903857856988907 94.648085802793503 84.681888148188591 141.52301958203316
leaf_count=2489 515 2411 233 311 945 982 5716 180 810 569 966 520 6303 917 3524 2287 124 2080 219 4619 1643 3787 514 160 787 4087 283 385 348 570
internal_value=0 0.0120242 0.0240656 0.01056 -0.0232697 -0.043668 0.0385649 0.0197096 -0.0133839 -0.0144247 -0.0320612 -0.00884598 -0.0119672 -0.0057697 -0.053793 -0.0408068 0.00279125 0.0217052 -0.0282579 0.0285059 -0.0355357 0.00952939 -0.0252068 -0.0152564 -0.0222241 0.0244705 -0.0518139 -0.00160384 0.0144798 -0.025293
internal_weight=0 8012.08 5435.91 2814.41 4133.07 1250.1 2621.5 2277.57 2576.17 2882.97 949.057 2304.1 2177.37 1933.91 1006.68 809.188 1342.58 2232.87 536.838 1640.46 482.839 1108.49 591.333 463.337 423.811 1235.23 272.071 236.543 179.33 171.97
internal_count=49284 32637 22232 11463 16647 5021 10769 9290 10405 11626 3822 9312 8792 7804 4039 3253 5426 9110 2173 6699 1954 4481 2378 1864 1704 5053 1093 966 733 694
is_linear=0
shrinkage=0.05


Tree=4
num_leaves=31
num_cat=0
split_feature=16 15 15 12 11 16 16 3 15 11 16 11 16 0 15 3 0 11 1 12 11 8 15 0 3 0 12 3 3 13
split_gain=1046.94 1681.25 816.657 609.758 433.469 448.54 308.172 292.325 237.02 207.966 269.263 192.081 182.912 163.636 151.412 140.275 128.142 117.251 115.227 126.85 114.288 110.865 105.718 99.368 95.7533 85.4315 79.9083 76.8051 78.1076 75.3015
threshold=3.5000000000000004 3.5000000000000004 4.5000000000000009 10.500000000000002 8.5000000000000018 5.5000000000000009 1.5000000000000002 85.000000000000014 2.5000000000000004 11.500000000000002 2.5000000000000004 7.5000000000000009 4.5000000000000009 17.500000000000004 4.5000000000000009 115.00000000000001 10.500000000000002 12.500000000000002 85.000000000000014 7.5000000000000009 17.500000000000004 1.5000000000000002 3.5000000000000004 11.500000000000002 175.00000000000003 9.5000000000000018 6.5000000000000009 105.00000000000001 125.00000000000001 38.500000000000007
decision_type=2 2 2 2 2 2 2 2 2 2 2 2 2 2 2 2 2 2 2 2 2 2 2 2 2 2 2 2 2 2
left_child=1 6 11 4 5 21 15 29 -8 -3 -11 -2 17 22 24 -1 -10 -6 -14 -20 -17 -4 -13 -19 -12 -21 -24 -9 -29 -7
right_child=2 9 3 -5 12 7 8 27 16 10 14 13 18 -15 -16 20 -18 23 19 25 -22 -23 26 -25 -26 -27 -28 28 -30 -31
leaf_value=0.005619652197155601 -0.0075757916674180671 -0.077233450037660537 -0.03930123465404773 -0.04499101303524327 -0.023280447297460941 0.0076301351194530929 0.051081700270391328 0.062016855062755998 0.041993500840490583 -0.06998159675230621 -0.016481057516960294 0.06614657113623422 0.014603049787336678 -0.0765682349411414 -0.040033587742732038 -0.074214346559336827 -0.015155366958050734 0.024769940447995062 0.043869560273698496 0.013312484220671878 -0.0054180117543310199 0.013811956797039344 0.055442967523110745 -0.089913462067867309 0.050519640461956811 -0.10109217832292233 0.01687463346779482 -0.020927613497306024 0.023509234359047889 -0.018722996230971088
leaf_weight=320.64688801765442 160.17732961475849 755.24473547935486 896.25606407225132 620.69437777996063 344.60226954519749 388.25440984964371 574.63844005763531 115.53408008813858 142.97850914299488 473.0497197508812 116.11675141751766 687.28379902243614 1129.7867877483368 24.801610171794891 318.61355189979076 140.06584702432156 312.41806185245514 321.98834899067879 1092.9288872629404 264.62456253170967 106.09581530094147 110.34590908885002 274.06204734742641 20.064991146326065 98.612295210361481 17.390530988574028 263.3444139957428 109.43830116093159 1025.8402125537395 898.09263509511948
leaf_count=1298 648 3024 3604 2498 1391 1577 2362 471 581 1897 469 2852 4615 101 1285 564 1262 1318 4495 1083 432 445 1129 81 403 71 1073 445 4184 3626
internal_value=0 -0.0237211 0.00911064 0.00242961 0.00679978 -0.00523764 0.0134359 0.00596689 0.0297299 -0.0574023 -0.0425201 0.0439732 0.0201663 0.0505814 -0.018163 -0.0161744 0.00278737 -0.00269564 0.0264337 0.036155 -0.0445631 -0.0334789 0.0531564 0.0180426 0.0142884 0.00625769 0.0365434 0.0231781 0.0192256 -0.0107689
internal_weight=0 3358.48 8765.51 7355.84 6735.15 3543.76 1596.84 2537.16 1030.04 1761.64 1006.39 1409.67 3191.39 1249.49 533.343 566.809 455.397 686.656 2504.73 1374.94 246.162 1006.6 1224.69 342.053 214.729 282.015 537.406 1250.81 1135.28 1286.35
internal_count=49284 13577 35707 29904 27406 14352 6499 10303 4205 7078 4054 5803 13054 5155 2157 2294 1843 2790 10264 5649 996 4049 5054 1399 872 1154 2202 5100 4629 5203
is_linear=0
shrinkage=0.05


Tree=5
num_leaves=31
num_cat=0
split_feature=6 5 16 15 15 16 11 16 15 15 16 0 11 16 13 11 16 15 16 16 3 1 1 1 16 11 13 15 15 16
split_gain=1170.89 860.181 414.184 620.767 361.538 562.825 345.715 365.132 271.648 205.258 194.997 167.402 154.282 148.572 143.367 141.747 176.186 129.098 128.309 127.983 180.85 123.156 95.9895 95.7295 92.7973 98.3607 92.5572 89.473 79.4482 79.8285
threshold=3.5000000000000004 3.5000000000000004 4.5000000000000009 3.5000000000000004 2.5000000000000004 3.5000000000000004 16.500000000000004 4.5000000000000009 2.5000000000000004 5.5000000000000009 1.5000000000000002 15.500000000000002 10.500000000000002 5.5000000000000009 34.500000000000007 9.5000000000000018 2.5000000000000004 5.5000000000000009 1.5000000000000002 5.5000000000000009 85.000000000000014 75.000000000000014 75.000000000000014 75.000000000000014 4.5000000000000009 11.500000000000002 8.5000000000000018 4.5000000000000009 1.5000000000000002 3.5000000000000004
decision_type=2 2 2 2 2 2 2 2 2 2 2 2 2 2 2 2 2 2 2 2 2 2 2 2 2 2 2 2 2 2
left_child=1 6 3 21 -3 12 7 8 -1 -4 -8 17 -6 -11 -9 -10 -17 -7 -14 -16 -21 -2 -5 -15 25 -19 -24 -20 -23 -30
right_child=2 4 9 22 5 11 10 14 15 13 -12 -13 18 23 19 16 -18 24 27 20 -22 28 26 -25 -26 -27 -28 -29 29 -31
leaf_value=0.0035373785274412633 -0.039714061091988759 0.066965282565815645 0.020408178151819511 -0.0763095948476505 -0.065724968812524584 0.047795881667702982 -0.036971619206059229 0.025367846552179493 -0.071384567449268313 -0.038849417698165176 0.047364433994569195 -0.090662072718798073 -0.07683070210822468 -0.021371695084304414 -0.035769012660115 -0.07544427066502736 -0.0064035747440770244 -0.035065330857558287 0.020483287186283596 -0.015944551703760766 0.017276987454333242 0.057626225400695855 -0.077687318902812871 0.011056007950501857 0.029282044837834604 0.031382207596315173 -0.040501303828273966 -0.028036898661692712 -0.0057446517219510718 0.04555812427918951
leaf_weight=344.15682435035706 120.14170306921005 515.77369692921638 571.33509048819542 350.83476461470127 148.00009804964066 947.36573964357376 81.732509091496468 471.83998681604862 386.1144584864378 448.9576477855444 424.61298057436943 27.708114370703697 57.871719270944595 418.72738780081272 293.69645448029041 138.35417582094669 278.24549734592438 123.30341014266014 259.36478501558304 849.82456409931183 790.9161189943552 95.705117389559746 200.31797724962234 498.58487649261951 1576.0431031733751 101.5705165117979 1016.3476203233004 149.94305272400379 305.49437399208546 100.85964186489582
leaf_count=1392 482 2184 2326 1408 593 3961 329 1935 1548 1801 1760 111 232 1686 1178 555 1126 497 1057 3425 3219 397 803 2023 6510 421 4075 604 1233 413
internal_value=0 0.011217 -0.0215957 -0.0364953 0.0279645 0.0220327 -0.00490118 -0.0104094 -0.0336263 -0.00475762 0.0337512 0.0316218 -0.0212376 -0.0152812 0.000656162 -0.0495599 -0.0293322 0.0328546 -0.00714419 -0.00537141 6.9832e-05 0.00575992 -0.053268 -0.00374633 0.0249948 -0.00505247 -0.0466238 0.00270873 0.0166417 0.00698902
internal_weight=0 7966.44 4127.31 2189.7 3906.94 3391.17 4059.49 3553.15 1146.87 1937.61 506.345 2775.99 615.18 1366.27 2406.28 802.714 416.6 2748.28 467.18 1934.44 1640.74 622.201 1567.5 917.312 1800.92 224.874 1216.67 409.308 502.059 406.354
internal_count=49284 32637 16647 8811 16170 13986 16467 14378 4621 7836 2089 11500 2486 5510 9757 3229 1681 11389 1893 7822 6644 2525 6286 3709 7428 918 4878 1661 2043 1646
is_linear=0
shrinkage=0.05


Tree=6
num_leaves=31
num_cat=0
split_feature=6 7 15 12 15 7 5 0 15 0 0 5 0 11 14 15 0 15 3 0 12 15 11 15 5 2 14 3 3 0
split_gain=1080.92 679.305 462.801 446.155 321.082 230.761 229.951 198.322 198.224 236.286 170.807 165.609 136.973 165.51 207.299 126.251 118.677 162.86 113.681 109.43 108.882 108.028 96.5414 95.9148 95.8684 94.7374 87.9238 81.3361 82.5691 79.0731
threshold=2.5000000000000004 1.0000000180025095e-35 2.5000000000000004 5.5000000000000009 2.5000000000000004 1.0000000180025095e-35 2.5000000000000004 11.500000000000002 4.5000000000000009 7.5000000000000009 7.5000000000000009 3.5000000000000004 13.500000000000002 14.500000000000002 35.500000000000007 4.5000000000000009 8.5000000000000018 5.5000000000000009 135.00000000000003 6.5000000000000009 3.5000000000000004 4.5000000000000009 7.5000000000000009 3.5000000000000004 2.5000000000000004 1.0000000180025095e-35 43.500000000000007 235.00000000000003 85.000000000000014 13.500000000000002
decision_type=2 2 2 2 2 2 2 2 2 2 2 2 2 2 2 2 2 2 2 2 2 2 2 2 2 2 2 2 2 2
left_child=1 10 5 6 -3 29 -4 8 24 25 11 27 13 14 22 -12 17 -8 -18 -19 -16 -20 -6 -14 -5 -10 -22 28 -1 -2
right_child=2 4 3 7 12 -7 16 -9 9 -11 15 -13 23 -15 20 -17 18 19 21 -21 26 -23 -24 -25 -26 -27 -28 -29 -30 -31
leaf_value=-0.010570650991820784 0.0091055443091128101 0.070794377840303888 -0.032660414883267888 -0.041621487148318925 -0.043055082985315574 0.046339361329802764 0.048459504127418396 -0.058426597089141753 -0.035104299809646002 -0.055548126481788633 -0.012754650228524881 0.024785183768880874 0.026184745054176936 0.04554323821565967 0.067664818201284935 -0.07444961646031506 0.018407835778164894 0.012780994003301053 -0.0070906307111281239 -0.034842688797731523 0.01765577024956725 -0.067626192608690794 0.0063766920049624339 -0.086672166472068421 0.012654360767593791 -0.010757110469042742 0.071991974245200888 -0.033839376021459207 0.011024461047705986 -0.071825709351083608
leaf_weight=968.86949102580547 59.497986599802971 458.11879959702492 457.28331759572029 100.27446115016937 117.56937266886234 426.93982023000717 288.20070998370647 530.41029372811317 688.72354875504971 707.5867183059454 253.47453917562962 658.27034467458725 32.043643310666084 820.35201960802078 194.28551559150219 123.24006475508213 174.24968749284744 776.40381622314453 177.21448774635792 142.8106944411993 555.40036521852016 126.1667897850275 617.84179250895977 45.642950490117073 431.28100728988647 951.56956566870213 85.97544239461422 206.66501314938068 814.95421415567398 61.252285942435265
leaf_count=3905 242 1963 1845 406 477 1777 1187 2140 2782 2852 1039 2718 130 3436 810 498 711 3168 724 578 2287 509 2544 185 1756 3862 356 835 3315 247
internal_value=0 0.0151785 -0.014771 -0.0190965 0.0323502 0.0290792 -0.00121498 -0.0303311 -0.0251558 -0.0313979 -0.0014356 0.00304474 0.0252173 0.0273398 0.0178347 -0.0329378 0.0073186 0.0156643 -0.0137788 0.0053821 0.0348728 -0.0322655 -0.00152591 -0.0401217 0.00241558 -0.02098 0.0249395 -0.00414499 -0.00070475 -0.031948
internal_weight=0 5952.7 6099.87 5552.18 2927.23 547.69 2142.33 3409.85 2879.44 2347.88 3025.47 2648.76 2469.11 2391.42 1571.07 376.715 1685.05 1207.42 477.631 919.215 835.661 303.381 735.411 77.6866 531.555 1640.29 641.376 1990.49 1783.82 120.75
internal_count=49284 24498 24786 22520 12188 2266 8722 13798 11658 9496 12310 10773 10225 9910 6474 1537 6877 4933 1944 3746 3453 1233 3021 315 2162 6644 2643 8055 7220 489
is_linear=0
shrinkage=0.05


Tree=7
num_leaves=31
num_cat=0
split_feature=6 5 16 15 15 15 16 16 11 1 16 0 15 11 3 16 11 16 11 3 0 7 11 0 6 11 7 15 15 3
split_gain=978.513 623.083 498.505 600.844 413.037 269.991 453.08 226.994 189.395 179.837 157.451 149.049 142.31 134.302 202.179 123.622 162.052 116.83 112.384 101.135 99.0764 96.2125 93.4837 91.7249 83.0362 121.12 79.9216 79.5055 77.3259 68.325
threshold=2.5000000000000004 2.5000000000000004 3.5000000000000004 3.5000000000000004 4.5000000000000009 2.5000000000000004 2.5000000000000004 4.5000000000000009 7.5000000000000009 85.000000000000014 5.5000000000000009 13.500000000000002 1.5000000000000002 16.500000000000004 235.00000000000003 4.5000000000000009 12.500000000000002 1.5000000000000002 15.500000000000002 85.000000000000014 5.5000000000000009 1.0000000180025095e-35 7.5000000000000009 9.5000000000000018 3.5000000000000004 9.5000000000000018 1.0000000180025095e-35 5.5000000000000009 2.5000000000000004 205.00000000000003
decision_type=2 2 2 2 2 2 2 2 2 2 2 2 2 2 2 2 2 2 2 2 2 2 2 2 2 2 2 2 2 2
left_child=1 13 3 12 22 -3 18 24 10 -9 -8 15 -2 14 -1 16 -10 -15 -7 -12 29 -5 -4 -14 25 -6 -25 -22 -24 -11
right_child=2 5 4 21 7 6 8 9 11 20 19 -13 23 17 -16 -17 -18 -19 -20 -21 27 -23 28 26 -26 -27 -28 -29 -30 -31
leaf_value=-0.0040184542781294278 0.043139168301930833 0.06284041311061099 -0.02188602440823656 -0.078084189125986234 -0.051171866187994755 -0.066031748867240711 -0.022603244145892279 -0.016694443219302916 -0.012730949204784493 0.015412303275321688 -0.0060653565157091412 -0.050867078668904823 0.057840882468262834 -0.049495109372547044 -0.047823290634166342 0.046136322132348417 0.037509183165627645 0.053696580808946119 0.0011395954386757389 0.035176026829810442 0.013948498056016001 -0.047427347704965386 0.072240138402124149 -0.047613288956669345 -0.046005427866972461 0.019371230224072961 -0.0044237943413943407 -0.024352883399383456 0.0281285634151087 0.060545617930394896
leaf_weight=1616.7176187485456 155.20449709892273 451.57805866003036 76.181680262088776 372.26181934773922 107.03941217064857 166.71574182808399 284.52087727189064 1421.4734515249729 242.49277745187283 612.66480927169323 220.57401226460934 49.007427409291267 44.790821060538292 33.836469650268555 314.68000750243664 1372.7801991701126 474.73607625067234 144.83628824353218 99.394204035401344 455.91192001104355 250.74518714845181 818.94877851009369 123.46252891421318 149.60679882764816 541.270224198699 141.00347666442394 377.12671819329262 294.76882761716843 508.65043279528618 97.151110991835594
leaf_count=6534 655 1967 309 1511 431 671 1148 5755 986 2506 900 199 184 136 1270 5786 1995 610 402 1894 1028 3304 525 602 2174 579 1533 1195 2096 399
internal_value=0 0.0144859 -0.0140486 -0.0351491 -0.00435394 0.0265374 0.0216673 -0.0114637 0.0270418 -0.00451546 0.0086037 0.0353256 0.000680489 -0.00731884 -0.0111555 0.0373466 0.0205232 0.0341545 -0.0409427 0.0217289 0.00927541 -0.0570078 0.0304382 -0.0108497 -0.0350271 -0.0110706 -0.0166908 -0.00674768 0.0367443 0.0215896
internal_weight=0 5927.78 6092.35 1917.94 4174.41 3817.71 3366.13 3466.12 3100.02 2676.8 961.007 2139.02 726.729 2110.07 1931.4 2090.01 717.229 178.673 266.11 676.486 1255.33 1191.21 708.295 571.524 789.313 248.043 526.734 545.514 632.113 709.816
internal_count=49284 24498 24786 7789 16997 15948 13981 14067 12908 10883 3942 8966 2974 8550 7804 8767 2981 746 1073 2794 5128 4815 2930 2319 3184 1010 2135 2223 2621 2905
is_linear=0
shrinkage=0.05


Tree=8
num_leaves=31
num_cat=0
split_feature=6 7 15 16 16 15 16 15 11 16 3 15 7 12 5 13 14 16 15 16 1 12 1 16 13 11 15 15 14 14
split_gain=899.844 700.788 434.759 560.809 327.506 484.054 271.278 229.814 214.597 390.287 172.644 166.608 154.518 138.204 132.22 126.113 124.498 114.822 138.967 113.186 108.315 101.358 107.946 95.416 95.3473 95.2277 93.8009 80.9465 75.4729 85.4177
threshold=3.5000000000000004 1.0000000180025095e-35 2.5000000000000004 2.5000000000000004 4.5000000000000009 3.5000000000000004 4.5000000000000009 4.5000000000000009 14.500000000000002 4.5000000000000009 75.000000000000014 5.5000000000000009 1.0000000180025095e-35 10.500000000000002 2.5000000000000004 3.5000000000000004 39.500000000000007 2.5000000000000004 1.5000000000000002 1.5000000000000002 95.000000000000014 13.500000000000002 75.000000000000014 3.5000000000000004 26.500000000000004 8.5000000000000018 4.5000000000000009 4.5000000000000009 26.500000000000004 38.500000000000007
decision_type=2 2 2 2 2 2 2 2 2 2 2 2 2 2 2 2 2 2 2 2 2 2 2 2 2 2 2 2 2 2
left_child=1 6 -3 19 5 12 7 17 9 24 -8 -6 -2 20 -12 -10 -11 18 -1 -4 28 22 -7 -9 -5 -19 -24 -21 -13 -30
right_child=4 2 3 8 11 21 10 23 15 16 14 13 -14 -15 -16 -17 -18 25 -20 27 -22 -23 26 -25 -26 -27 -28 -29 29 -31
leaf_value=0.00010862823655453847 -0.040830424808006575 0.063598311396231053 -0.082693716354772864 -0.0045790973884026216 0.018774008627638467 -0.066415391623470904 -0.01347404963199407 -0.076249157464578554 -0.083109319959649014 0.019844433792066036 -0.0035633251887235346 0.038213859877878627 0.018782949152339766 -0.051861650421292496 0.025160396106099832 0.045400298733999069 0.051101897531508234 -0.072121374632757404 -0.057006882936724512 -0.0014323613049790779 0.011383507951729139 -0.068197037675436695 -0.0025243557429182697 -0.030108875960578152 -0.046597049841460396 0.046062659704857234 -0.040372084958046443 -0.059674930294085361 -0.037379085851609262 0.0014088419352425022
leaf_weight=310.01378045976162 140.85988309979439 595.09632340073586 112.36224573850632 504.078991279006 567.58313794434071 279.05823040008545 1012.29770411551 235.72389489412308 19.458718106150627 1000.8650651276112 703.17344760894775 52.198170095682144 476.10911096632481 199.94653354585171 931.2081463187933 1010.2949710637331 467.29486460983753 19.59933790564537 162.22833330929279 164.38598980009556 479.01676824688911 418.89821244776249 220.69506084918976 213.5581651777029 184.40573716163635 130.75964330136776 633.98071748018265 93.638000681996346 421.84417524933815 213.91061672568321
leaf_count=1256 566 2628 453 2058 2326 1137 4091 957 79 4182 2849 210 1959 802 3868 4312 1967 79 658 665 1946 1701 890 866 743 548 2558 378 1692 860
internal_value=0 0.00992301 0.0240428 0.0174247 -0.0189555 -0.0322927 -0.00584215 -0.0270632 0.0241937 0.0152275 0.0027522 -0.00399739 0.00517265 -0.0134527 0.0128024 0.0429719 0.0297932 -0.00739615 -0.0195121 -0.0408086 -0.00687181 -0.0471803 -0.0394149 -0.0543172 -0.0158333 0.0306573 -0.030599 -0.0225688 -0.0195829 -0.0243282
internal_weight=0 7870.44 4151.88 3556.78 4104.1 2169.6 3718.56 1071.88 3186.4 2156.64 2646.68 1934.5 616.969 1366.92 1634.38 1029.75 1468.16 622.601 472.242 370.386 1166.97 1552.63 1133.73 449.282 688.485 150.359 854.676 258.024 687.953 635.755
internal_count=49284 32637 17465 14837 16647 8811 15172 4364 13341 8950 10808 7836 2525 5510 6717 4391 6149 2541 1914 1496 4708 6286 4585 1823 2801 627 3448 1043 2762 2552
is_linear=0
shrinkage=0.05


Tree=9
num_leaves=31
num_cat=0
split_feature=6 7 16 15 15 15 16 12 0 5 16 13 15 11 15 16 11 11 14 12 11 10 3 3 7 11 11 2 6 14
split_gain=823.563 534.705 426.709 500.824 356.574 269.814 286.819 236.507 211.251 189.125 173.715 173.109 161.481 126.422 123.587 107.339 92.8604 91.9218 103.051 91.376 94.5528 88.2971 85.6901 117.752 85.3179 84.611 82.2941 82.1612 82.6679 81.1568
threshold=2.5000000000000004 1.0000000180025095e-35 3.5000000000000004 3.5000000000000004 4.5000000000000009 3.5000000000000004 3.5000000000000004 8.5000000000000018 11.500000000000002 2.5000000000000004 4.5000000000000009 37.500000000000007 4.5000000000000009 13.500000000000002 1.5000000000000002 1.5000000000000002 8.5000000000000018 8.5000000000000018 33.500000000000007 9.5000000000000018 16.500000000000004 1.5000000000000002 85.000000000000014 145.00000000000003 1.0000000180025095e-35 7.5000000000000009 19.500000000000004 1.0000000180025095e-35 4.5000000000000009 38.500000000000007
decision_type=2 2 2 2 2 2 2 2 2 2 2 2 2 2 2 2 2 2 2 2 2 2 2 2 2 2 2 2 2 2
left_child=1 10 3 14 25 15 13 9 17 -6 12 -12 -1 -7 -2 26 -11 18 -8 20 -16 -21 -13 -24 -5 -4 -3 28 -18 -25
right_child=2 5 4 24 7 6 8 -9 -10 16 11 22 -14 -15 19 -17 27 -19 -20 21 -22 -23 23 29 -26 -27 -28 -29 -30 -31
leaf_value=-0.0034995351379461721 0.040245224247045859 -0.043931352153283122 -0.021181617389244324 -0.072706869761750836 -0.028332940715888096 -0.055693371780898893 -0.040351125496373361 -0.033145333826027371 -0.079597595418812173 -0.0081232755706665844 0.031472366519256514 -0.014141417478102181 -0.048815439084376473 0.0064709988781984978 -0.016336275615074579 0.06030917866660615 0.013185850431816408 0.037106002992461577 0.022137941627233142 -0.054398995874309901 0.040951164450020394 0.0029745308925417445 0.03118683619087877 -0.033899016257880436 -0.043613666248074244 0.034649736926557789 0.066991541525696308 0.023025547743049837 -0.034350239444751941 0.0073038246567438308
leaf_weight=517.28756977617741 152.41511198878288 46.097390353679657 76.12922391295433 365.26772703230381 572.27638889849186 157.36029332876205 81.019344732165337 866.23404951393604 44.823618620634079 866.87981940805912 513.98673486709595 757.12462542951107 317.0985514074564 170.29527096450329 162.28615725040436 693.55675877630711 235.24163910746574 1281.2934129536152 355.32285261154175 164.30652722716331 129.50476565957069 113.30354784429073 353.39477030932903 175.15200866758823 812.63236592710018 624.69610913097858 26.238971337676048 765.24897193908691 149.63746699690819 376.21486073732376
leaf_count=2115 655 191 309 1511 2308 637 330 3509 184 3518 2144 3046 1292 701 657 3074 968 5485 1473 664 536 462 1457 713 3304 2621 113 3159 605 1543
internal_value=0 0.0133787 -0.0129072 -0.0325387 -0.0039344 0.0288764 0.0195735 -0.0105297 0.0275596 -0.0029638 -0.00132494 0.00611302 -0.0207213 -0.0233841 0.000256457 0.0542641 0.00423407 0.030356 0.0105351 -0.0104476 0.00908945 -0.0309826 -0.0017301 0.00865597 -0.0526355 0.0285849 -0.00369567 0.0135481 -0.00529575 -0.00578503
internal_weight=0 5866.27 6056.06 1899.72 4156.34 2856.01 2090.11 3455.52 1762.46 2589.28 3010.26 2175.87 834.386 327.656 721.816 765.893 2017.01 1717.64 436.342 569.401 291.791 277.61 1661.89 904.762 1177.9 700.825 72.3364 1150.13 384.879 551.367
internal_count=49284 24498 24786 7789 16997 12188 8810 14067 7472 10558 12310 8903 3407 1338 2974 3378 8250 7288 1803 2319 1193 1126 6759 3713 4815 2930 304 4732 1573 2256
is_linear=0
shrinkage=0.05


Tree=10
num_leaves=31
num_cat=0
split_feature=6 5 15 15 0 13 11 14 12 7 12 11 3 1 12 4 13 11 0 14 7 3 3 15 1 14 6 0 11 7
split_gain=749.614 611.94 349.355 228.973 324.616 210.99 213.532 237.843 200.335 151.113 128.386 149.876 199.03 127.061 118.812 135.373 101.459 93.7128 117.141 91.735 82.123 69.7514 86.6689 69.5545 68.2075 91.79 67.6042 62.9725 62.4229 59.526
threshold=3.5000000000000004 2.5000000000000004 2.5000000000000004 3.5000000000000004 8.5000000000000018 4.5000000000000009 7.5000000000000009 33.500000000000007 10.500000000000002 1.0000000180025095e-35 10.500000000000002 17.500000000000004 235.00000000000003 75.000000000000014 4.5000000000000009 2.5000000000000004 8.5000000000000018 15.500000000000002 7.5000000000000009 37.500000000000007 1.0000000180025095e-35 85.000000000000014 255.00000000000003 4.5000000000000009 55.000000000000007 19.500000000000004 1.0000000180025095e-35 13.500000000000002 13.500000000000002 1.0000000180025095e-35
decision_type=2 2 2 2 2 2 2 2 2 2 2 2 2 2 2 2 2 2 2 2 2 2 2 2 2 2 2 2 2 2
left_child=1 10 29 9 8 -4 7 -7 13 27 11 12 -1 -5 15 -8 -6 18 26 -17 -18 -9 -23 -22 25 -11 -16 -2 -14 -3
right_child=3 2 5 4 16 6 14 21 -10 24 -12 -13 28 -15 17 19 20 -19 -20 -21 23 22 -24 -25 -26 -27 -28 -29 -30 -31
leaf_value=-0.0051020255280694576 -0.0074720813099764544 0.016034623233690225 -0.061449998178631504 -0.021448106513729751 -0.072393469527451668 -0.045109019418439311 0.049872071952183447 -0.009916160798833595 -0.040102773850028972 -0.068651282020607066 -0.068928474589412411 0.033799928115063174 -0.053172167228175832 0.0061672681516459407 0.051423342288493379 0.0024079637967366584 -0.060747961545233591 0.03311513089341455 -0.013493984353883458 0.076659544372537497 -0.0035844508851372945 0.024557016528965671 -0.02554240574710373 -0.039197580941157315 0.02644523816742906 0.072886098296661789 0.013503132072351024 -0.074684125604526225 -0.0090677039854026465 0.061658461809264403
leaf_weight=1835.1895109713078 78.023937925696373 83.277817383408546 90.115786984562874 663.60100866854191 258.09436549246311 249.73504216969013 675.8353333324194 331.62930551171303 493.83549104630947 42.70590378344059 91.991750657558441 190.77632343769073 333.69598132371902 1118.7773555070162 131.95969596505165 318.13348896801472 248.552410364151 592.60612565279007 402.68630820512772 47.854310095310211 212.51788982748985 632.68914748728275 99.9646375477314 386.34856978058815 498.27189411222935 15.653713613748549 1075.3422798961401 62.979259744286537 105.61967186629772 505.20362900197506
leaf_count=7418 314 349 368 2675 1064 1017 2923 1352 2002 173 375 816 1363 4551 565 1343 1038 2544 1666 205 864 2643 408 1575 2072 64 4519 255 433 2330
internal_value=0 0.00911656 0.0189065 -0.0173378 -0.0227181 0.0143117 0.0158095 -0.00119494 -0.0119221 0.0087431 -0.0109323 -0.00876818 -0.0123386 -0.00411427 0.0226964 0.0366088 -0.0449466 0.0161159 0.00985874 0.0121166 -0.0365873 0.00910954 0.0177214 -0.0265597 0.0204553 -0.0306869 0.0176479 -0.0374924 -0.0425686 0.0552021
internal_weight=0 7794.31 5237.03 4079.36 3381.73 4648.55 4558.44 1314.02 2276.21 697.635 2557.27 2465.28 2274.51 1782.38 3244.42 1041.82 1105.51 2202.59 1609.99 365.988 847.419 1064.28 732.654 598.866 556.632 58.3596 1207.3 141.003 439.316 588.481
internal_count=49284 32637 22232 16647 13769 19553 19185 5420 9228 2878 10405 10030 9214 7226 13765 4471 4541 9294 6750 1548 3477 4403 3051 2439 2309 237 5084 569 1796 2679
is_linear=0
shrinkage=0.05


Tree=11
num_leaves=31
num_cat=0
split_feature=6 7 16 15 15 15 16 0 16 11 6 16 13 15 11 15 16 0 11 16 11 0 14 7 11 13 3 3 11 3
split_gain=693.272 460.173 376.199 423.788 311.66 240.883 252.499 189.4 177.681 200.696 150.08 150.028 151.137 141.878 108.799 108.555 98.6531 92.2427 84.7804 80.6771 102.943 79.6372 78.3737 77.0035 75.166 74.5312 73.3303 105.692 72.9108 72.8722
threshold=2.5000000000000004 1.0000000180025095e-35 3.5000000000000004 3.5000000000000004 4.5000000000000009 3.5000000000000004 3.5000000000000004 11.500000000000002 5.5000000000000009 9.5000000000000018 3.5000000000000004 4.5000000000000009 37.500000000000007 4.5000000000000009 13.500000000000002 1.5000000000000002 1.5000000000000002 2.5000000000000004 10.500000000000002 4.5000000000000009 11.500000000000002 9.5000000000000018 20.500000000000004 1.0000000180025095e-35 7.5000000000000009 7.5000000000000009 85.000000000000014 145.00000000000003 19.500000000000004 155.00000000000003
decision_type=2 2 2 2 2 2 2 2 2 2 2 2 2 2 2 2 2 2 2 2 2 2 2 2 2 2 2 2 2 2
left_child=1 11 3 15 24 16 14 19 9 -6 -11 13 -13 -1 -7 -2 28 -10 -17 20 -8 -20 -19 -5 -4 -25 -14 -28 -3 -24
right_child=2 5 4 23 8 6 7 -9 17 10 -12 12 26 -15 -16 18 -18 22 21 -21 -22 -23 29 25 -26 -27 27 -29 -30 -31
leaf_value=-0.0032016214095331105 0.037727321433495532 -0.042281595503415995 -0.019760133812022056 -0.068437887813022819 -0.038974351922400174 -0.052384521003009554 -0.021210948590773562 -0.075743941013252269 -0.036822812749885858 0.022413173483512724 -0.018796116914915287 0.029507986550033567 -0.013107143441442537 -0.04579312814039798 0.0054547554411054208 -0.048269026918925394 0.057295095378473208 0.089524378816896177 0.071564448550111057 0.034475055416368056 0.030079090537952043 -0.00649988115263003 0.00027364700472269849 -0.071489328425175191 0.032894699987510469 -0.033044997021034188 0.029445271209018783 -0.0056710656446944778 0.063299833047832044 0.034393607587003584
leaf_weight=516.57726585865021 149.48026941716671 45.807208612561226 76.125798597931862 356.23156626522541 805.46646398305893 156.15557107329369 166.87696684896946 44.830410584807396 137.3618852943182 325.85816693305969 686.19690364599228 508.60035562515259 758.10486924648285 314.6108288615942 169.62309741973877 116.11735168099403 670.33806845545769 27.56341341137886 35.462271943688393 1291.3407852351665 236.43853229284286 414.93223488330841 1286.8003175705671 156.48928831517696 618.03859749436378 648.57103098928928 350.7417479455471 550.69481621682644 25.428521454334259 178.1550267636776
leaf_count=2115 655 191 309 1511 3261 637 678 184 552 1364 2787 2144 3046 1292 701 470 3074 112 150 5584 1026 1699 5253 648 2621 2656 1457 2256 113 738
internal_value=0 0.0123551 -0.011862 -0.0304289 -0.003446 0.0269059 0.0181288 0.0256947 -0.00960079 -0.0203502 -0.00552768 -0.00126197 0.00566192 -0.0193228 -0.0222694 -0.00017396 0.0513501 0.00238611 -0.0101746 0.0283782 0.00885718 -0.000353406 0.00599465 -0.0490825 0.0271203 -0.0405179 -0.0016462 0.00799242 -0.00459293 0.00442302
internal_weight=0 5806.17 6018.85 1877.28 4141.57 2806.84 2065.27 1739.49 3447.4 1817.52 1012.06 2999.33 2168.14 831.188 325.779 715.992 741.574 1629.88 566.512 1694.66 403.315 450.395 1492.52 1161.29 694.164 805.06 1659.54 901.437 71.2357 1464.96
internal_count=49284 24498 24786 7789 16997 12188 8810 7472 14067 7412 4151 12310 8903 3407 1338 2974 3378 6655 2319 7288 1704 1849 6103 4815 2930 3304 6759 3713 304 5991
is_linear=0
shrinkage=0.05


Tree=12
num_leaves=31
num_cat=0
split_feature=6 5 16 15 15 12 11 5 15 16 16 15 11 15 11 16 16 11 12 11 10 15 10 4 11 0 15 16 0 12
split_gain=628.996 431.209 342.843 387.706 282.594 194.198 168.786 159.981 152.19 261.54 122.396 126.943 101.315 98.8386 98.7421 92.4425 89.8515 92.6665 79.3642 80.1289 76.6991 75.7395 75.5125 74.6226 74.4814 74.4194 74.1231 156.798 137.126 99.1864
threshold=2.5000000000000004 3.5000000000000004 3.5000000000000004 3.5000000000000004 4.5000000000000009 8.5000000000000018 16.500000000000004 2.5000000000000004 2.5000000000000004 2.5000000000000004 4.5000000000000009 2.5000000000000004 3.5000000000000004 1.5000000000000002 8.5000000000000018 1.5000000000000002 2.5000000000000004 12.500000000000002 9.5000000000000018 16.500000000000004 1.5000000000000002 2.5000000000000004 2.5000000000000004 1.5000000000000002 8.5000000000000018 7.5000000000000009 4.5000000000000009 4.5000000000000009 11.500000000000002 6.5000000000000009
decision_type=2 2 2 2 2 2 2 2 2 2 2 2 2 2 2 2 2 2 2 2 2 2 2 2 2 2 2 2 2 2
left_child=1 6 3 13 21 7 10 -6 -3 -10 11 -1 -11 -2 -12 -8 -13 -18 19 -15 -20 -4 26 -7 25 -9 -14 29 -29 -28
right_child=2 8 4 -5 5 23 15 24 9 12 14 16 22 18 -16 -17 17 -19 20 -21 -22 -23 -24 -25 -26 -27 27 28 -30 -31
leaf_value=0.0045572447916522943 0.036232580332926867 0.058177677645673692 0.061191359141968438 -0.04706200568866202 -0.025607883525329125 -0.024502131318449919 -0.03134775505337211 -0.0031105385986327722 -0.037501899394706377 -0.029326112428790921 -0.0042249984686843342 -0.06797678564212721 0.049390402989538534 -0.014725893276885197 0.022097863579206543 0.043919752954464625 -0.038235515648439133 0.016755312780472879 -0.050704632709057944 0.038239985671947474 0.0028795604432339198 0.0181450309943323 -0.069631289648453318 -0.071490073409412616 0.012753759193478749 -0.066765302962045914 -0.025569050041860039 0.034895661714371917 -0.093010320260776588 0.032766060731115092
leaf_weight=311.9407300055027 147.90525379776955 334.42265157401562 124.73855195939541 1150.9149882346392 571.6139771938324 767.22738097608089 47.68513123691082 817.80564279854298 170.53655332326889 77.411784648895264 1484.3124177157879 152.91174638271332 392.74629382789135 162.02332210540771 468.78642673790455 282.28703415393829 267.77449312806129 107.31073947250843 163.6185998916626 127.67477770149708 112.83610562980175 565.18477764725685 19.249934241175652 94.953751981258392 1142.7652501165867 48.647375762462616 215.68717570602894 1308.0600680857897 21.295703306794167 110.04419629275799
leaf_count=1265 655 1630 561 4815 2308 3122 194 3321 697 321 6029 638 1747 657 1966 1253 1096 442 664 536 462 2369 83 387 4732 197 900 5690 88 459
internal_value=0 0.0118115 -0.0113096 -0.0291052 -0.00327946 -0.00913212 -0.000775603 -0.00226867 0.0266483 0.0220937 -0.00477093 -0.0207317 0.0268329 -0.00016241 0.00209306 0.0330427 -0.0356724 -0.0225028 -0.00967046 0.00861705 -0.028834 0.0259278 0.028936 -0.029677 0.00437124 -0.00668446 0.0298626 0.0252287 0.0328467 -0.00586128
internal_weight=0 5772.46 5997.91 1864.97 4132.94 3443.01 3123.01 2580.83 2649.45 2315.03 2793.04 839.938 2144.5 714.058 1953.1 329.972 527.997 375.085 566.153 289.698 276.455 689.923 2067.08 862.181 2009.22 866.453 2047.83 1655.09 1329.36 325.731
internal_count=49284 24498 24786 7789 16997 14067 12883 10558 11615 9985 11436 3441 9288 2974 7995 1447 2176 1538 2319 1193 1126 2930 8967 3509 8250 3518 8884 7137 5778 1359
is_linear=0
shrinkage=0.05


Tree=13
num_leaves=31
num_cat=0
split_feature=6 5 15 16 16 15 11 11 15 16 7 14 11 16 16 14 16 3 7 1 14 15 16 11 14 14 16 7 1 14
split_gain=572.582 496.012 290.641 487.248 249.214 335.374 199.783 177.264 133.441 130.4 115.38 115.265 168.395 176.607 149.926 107.879 106.324 103.493 103.161 73.1631 67.2476 67.0826 69.1423 69.8233 65.1142 63.9115 61.5754 61.6296 60.4588 66.5736
threshold=3.5000000000000004 2.5000000000000004 2.5000000000000004 3.5000000000000004 4.5000000000000009 3.5000000000000004 11.500000000000002 7.5000000000000009 5.5000000000000009 1.5000000000000002 1.0000000180025095e-35 44.500000000000007 15.500000000000002 1.5000000000000002 4.5000000000000009 38.500000000000007 5.5000000000000009 85.000000000000014 1.5000000000000002 75.000000000000014 16.500000000000004 4.5000000000000009 4.5000000000000009 11.500000000000002 40.500000000000007 24.500000000000004 1.5000000000000002 1.0000000180025095e-35 75.000000000000014 19.500000000000004
decision_type=2 2 2 2 2 2 2 2 2 2 2 2 2 2 2 2 2 2 2 2 2 2 2 2 2 2 2 2 2 2
left_child=1 11 26 6 5 10 -4 16 -6 -8 -2 12 14 -14 -1 20 -5 -18 -11 -7 -10 -9 23 -23 -17 -25 27 -3 29 -12
right_child=4 2 3 7 8 19 9 21 15 18 28 -13 13 -15 -16 24 17 -19 -20 -21 -22 22 -24 25 -26 -27 -28 -29 -30 -31
leaf_value=-0.052095293935075795 -0.03571767182738797 -0.059047351075095435 -0.05410457244676458 -0.018039129634669578 0.018271814416522706 -0.060565302199361105 -0.063771952863268075 0.046057131011915012 0.057282580006566788 -0.010846095644573032 -0.059765276022748448 0.0024149017538886031 -0.058582321826003952 0.035968061454684598 -0.014574143704895393 0.041001717634669581 -0.0077804888802491161 0.028408465209398909 0.036104784729651687 -0.03389620166136844 -0.020211163322287843 -0.017025178742696791 0.029397665166045691 -0.020031815569589839 -0.0058280526911885068 0.037754023355804966 0.057933232584037764 0.038152131164290198 0.022966682878226011 0.068914357066039295
leaf_weight=406.12049567699432 138.8993993550539 22.759170681238174 293.89636436104774 352.78689579665661 563.03370736539364 329.17509682476521 78.506117731332779 443.82325415313244 28.773219779133797 338.40129980444908 45.574031859636307 1076.5570262670517 63.321384832262993 224.44990369677544 772.93758158385754 138.48016080260277 318.37330694496632 520.62634083628654 178.81828589737415 1175.6072940528393 1035.3537445217371 178.91471727192402 1614.3338209539652 63.372419714927673 159.98375570774078 195.34421093761921 476.36511105298996 57.533496469259262 409.54710173606873 12.895361885428427
leaf_count=1691 566 93 1218 1430 2326 1408 321 2017 117 1394 184 4347 259 980 3128 560 1300 2223 750 4878 4188 725 7066 268 645 841 2324 262 1722 53
internal_value=0 0.0080466 0.016992 0.0128432 -0.015213 -0.0270756 -0.0203702 0.0208558 -0.00220413 -0.0037276 0.00429995 -0.0100097 -0.0191286 0.0151631 -0.0274981 -0.010665 0.00499177 0.0146759 0.00538623 -0.0397301 -0.0181158 0.0284312 0.0246189 0.00699107 0.0158998 0.0235994 0.051106 0.0106007 0.0161765 -0.0313851
internal_weight=0 7677.24 5133.85 4577.2 4037.32 2111.7 889.622 3687.57 1925.62 595.726 606.916 2543.39 1466.83 287.771 1179.06 1362.59 1191.79 839 517.22 1504.78 1064.13 2495.79 2051.97 437.631 298.464 258.717 556.658 80.2927 468.016 58.4694
internal_count=49284 32637 22232 19553 16647 8811 3683 15870 7836 2465 2525 10405 6058 1239 4819 5510 4953 3523 2144 6286 4305 10917 8900 1834 1205 1109 2679 355 1959 237
is_linear=0
shrinkage=0.05


Tree=14
num_leaves=31
num_cat=0
split_feature=6 7 16 15 15 15 16 12 16 3 1 16 6 1 11 16 15 11 14 11 13 16 16 14 7 15 11 12 12 13
split_gain=528.894 379.222 294.387 328.375 244.485 210.057 198.684 176.344 124.892 119.286 109.182 127.393 104.781 90.2542 86.8315 114.055 86.582 86.3245 85.6938 104.395 102.444 81.0292 78.5961 130.423 74.3174 72.3753 71.4462 89.5994 75.164 71.0017
threshold=2.5000000000000004 1.0000000180025095e-35 3.5000000000000004 3.5000000000000004 4.5000000000000009 3.5000000000000004 3.5000000000000004 5.5000000000000009 5.5000000000000009 85.000000000000014 85.000000000000014 4.5000000000000009 1.0000000180025095e-35 55.000000000000007 10.500000000000002 2.5000000000000004 1.5000000000000002 13.500000000000002 38.500000000000007 11.500000000000002 19.500000000000004 1.5000000000000002 5.5000000000000009 32.500000000000007 1.0000000180025095e-35 2.5000000000000004 10.500000000000002 4.5000000000000009 14.500000000000002 7.5000000000000009
decision_type=2 2 2 2 2 2 2 2 2 2 2 2 2 2 2 2 2 2 2 2 2 2 2 2 2 2 2 2 2 2
left_child=1 8 3 16 13 21 17 10 12 -10 -6 -12 -1 -4 -14 -16 -2 -7 19 20 -8 -3 -9 -24 -5 -15 27 -18 -28 -26
right_child=2 5 4 24 7 6 18 22 9 -11 11 -13 14 25 15 -17 26 -19 -20 -21 -22 -23 23 -25 29 -27 28 -29 -30 -31
leaf_value=0.009747201212670158 0.034139635226282612 -0.0033208697149487432 -0.030437171449599027 -0.063243359460218571 -0.0070954192774829034 -0.047059173915868807 -0.065719985161478242 -0.026439527344954236 -0.0070791834989310607 0.018654853200504539 -0.0170593026315814 0.033921362439179197 -0.037436162649485627 0.06807251661662464 -0.043256528548448227 0.016070302650494164 0.04785765370440976 0.0048450802973755772 0.038572270563559184 0.028377684583694884 0.0058597193045013783 0.053539998679343885 0.018492468311106288 -0.022863754295615862 -0.066063715829976125 0.022602084912189208 0.014900483503043422 -0.065313192093124806 -0.028075477911932708 -0.028002366423880987
leaf_weight=327.95761308073997 144.94218522310257 69.526355192065239 67.601486653089523 341.38226416707039 841.33576942980289 152.9209221303463 56.510631576180458 1170.2867522537708 835.99736024439335 976.07835426926613 166.62160502374172 463.16377718746662 481.2782943546772 105.72379313409328 125.10417042672634 229.86347988247871 21.487339794635773 168.23578278720379 581.94933065772057 629.90909099578857 432.9202339053154 633.94626964628696 321.5475750118494 468.25942194461823 151.69391937553883 508.05765321850777 290.65526802837849 94.000037118792534 156.53591953217983 637.31650972366333
leaf_count=1335 655 304 287 1511 3431 637 235 4796 3377 4114 684 1939 1990 494 523 971 87 701 2574 2827 1836 3074 1309 1908 648 2149 1209 383 640 2656
internal_value=0 0.0109128 -0.0103964 -0.0270318 -0.0029617 0.0243862 0.0162003 -0.00839432 -0.00142719 0.00678251 0.00468967 0.0204335 -0.0142055 0.0243952 -0.0235993 -0.00483874 -0.000320443 -0.0198695 0.0230092 0.014918 -0.00240501 0.0479203 -0.0182143 -0.00602674 -0.0437529 0.0304344 -0.00919713 -0.0442569 -0.000142929 -0.03532
internal_weight=0 5702.2 5950.61 1838.01 4112.6 2725.92 2022.45 3431.21 2976.28 1812.08 1471.12 629.785 1164.2 681.383 836.246 354.968 707.621 321.157 1701.29 1119.34 489.431 703.473 1960.09 789.807 1130.39 613.781 562.679 115.487 447.191 789.01
internal_count=49284 24498 24786 7789 16997 12188 8810 14067 12310 7491 6054 2623 4819 2930 3484 1494 2974 1338 7472 4898 2071 3378 8013 3217 4815 2643 2319 470 1849 3304
is_linear=0
shrinkage=0.05


Tree=15
num_leaves=31
num_cat=0
split_feature=16 11 16 15 15 0 3 12 8 12 7 15 2 15 16 3 15 1 3 15 16 1 15 16 12 3 11 11 4 5
split_gain=461.971 548.215 529.977 488.112 323.622 327.485 171.982 156.18 134.878 117.267 101.951 133.6 100.569 90.8805 111.182 87.5332 87.1173 73.9377 72.5591 69.8552 74.0115 68.7985 67.3515 126.796 75.9981 65.904 63.6885 60.099 59.6648 63.3481
threshold=2.5000000000000004 10.500000000000002 5.5000000000000009 3.5000000000000004 3.5000000000000004 13.500000000000002 85.000000000000014 10.500000000000002 1.5000000000000002 6.5000000000000009 1.0000000180025095e-35 2.5000000000000004 1.0000000180025095e-35 3.5000000000000004 3.5000000000000004 105.00000000000001 1.5000000000000002 75.000000000000014 125.00000000000001 5.5000000000000009 4.5000000000000009 85.000000000000014 4.5000000000000009 3.5000000000000004 7.5000000000000009 115.00000000000001 15.500000000000002 5.5000000000000009 1.0000000180025095e-35 1.0000000180025095e-35
decision_type=2 2 2 2 2 2 2 2 2 2 2 2 2 2 2 2 2 2 2 2 2 2 2 2 2 2 2 2 2 2
left_child=3 2 8 10 -3 7 21 12 13 -10 16 17 -6 -2 -15 -8 -1 -12 25 20 -9 -4 26 -24 -25 -17 -14 -16 -20 -30
right_child=1 4 6 -5 5 -7 15 19 9 -11 11 -13 22 14 27 18 -18 -19 28 -21 -22 -23 23 24 -26 -27 -28 -29 29 -31
leaf_value=-0.00093013956472953708 0.0042051129031954034 0.04423263120510916 -0.0098663637798975662 -0.053512336181405357 0.0034344012869000741 -0.073843551471795041 0.054737690961889331 -0.01510177844032138 0.038060090860412739 -0.029133102263970635 -0.028062932610358183 -0.013846547700209025 0.021557844809547335 -0.060648519587817487 -0.046145408741091354 -0.0026554239910651406 -0.043890910119270585 0.046612002822191495 0.0071954317101130712 -0.042575534363135686 0.030353597770116338 0.013551462321595629 -0.022280514676896183 0.030624198640827778 9.0161509809839858e-05 -0.089958377129414333 0.063165087201131662 -0.021872226273969564 -0.033261932150175373 0.032529401928285837
leaf_weight=318.7472830414772 187.17194916307926 912.14799146354198 1291.0653463900089 765.7906746417284 782.10489743947983 110.94632357358932 152.43619741499424 283.82534646987915 150.14265063405037 114.41374029219151 38.073578894138336 231.06318905949593 171.36848863959312 292.12054242193699 323.14339876174927 113.61754028499126 187.37353500723839 256.22177784144878 606.09494872391224 131.56649950146675 130.82893851399422 414.27458462119102 158.13992580771446 1110.6958152502775 249.57754445075989 26.696163237094879 198.51892034709454 1209.4163774102926 38.803344249725342 640.79973986744881
leaf_count=1294 805 4310 5207 3321 3316 460 651 1186 625 472 168 947 746 1256 1316 469 773 1193 2534 543 535 1730 657 4838 1052 112 887 4972 158 2751
internal_value=0 0.00430512 -0.00602149 -0.0232712 0.017848 0.0106155 0.00683112 0.0135286 -0.0245618 0.00900079 -0.000819549 0.0146093 0.0185115 -0.0289752 -0.0323788 0.0187247 -0.0168349 0.0369512 0.0148751 -0.010832 -0.000760003 -0.00417752 0.0247561 0.0200955 0.0250219 -0.0192657 0.0438885 -0.0269903 0.018601 0.0287729
internal_weight=0 9799.92 5560.2 1797.27 4239.72 3327.57 3283.79 3216.63 2276.41 264.556 1031.48 525.359 2670.41 2011.85 1824.68 1578.45 506.121 294.295 1426.01 546.221 414.654 1705.34 1888.3 1518.41 1360.27 140.314 369.887 1532.56 1285.7 679.603
internal_count=49284 41588 23058 7696 18530 14220 13612 13760 9446 1097 4375 2308 11496 8349 7544 6675 2067 1361 6024 2264 1721 6937 8180 6547 5890 581 1633 6288 5443 2909
is_linear=0
shrinkage=0.05


Tree=16
num_leaves=31
num_cat=0
split_feature=6 5 5 12 15 16 15 16 11 15 1 8 16 14 14 11 16 14 10 12 11 3 1 16 15 16 15 12 11 12
split_gain=463.826 336.93 262.416 205.265 246.113 173.678 161.774 247.171 125.747 111.463 109.921 93.2468 86.3757 106.806 84.5708 82.0855 80.0508 79.154 75.9632 75.0193 74.4933 103.685 70.0145 75.84 96.1295 68.5988 121.504 76.6541 90.4124 68.3362
threshold=2.5000000000000004 2.5000000000000004 2.5000000000000004 5.5000000000000009 2.5000000000000004 2.5000000000000004 2.5000000000000004 2.5000000000000004 5.5000000000000009 4.5000000000000009 85.000000000000014 1.5000000000000002 5.5000000000000009 32.500000000000007 35.500000000000007 17.500000000000004 2.5000000000000004 34.500000000000007 2.5000000000000004 10.500000000000002 17.500000000000004 235.00000000000003 135.00000000000003 4.5000000000000009 4.5000000000000009 4.5000000000000009 4.5000000000000009 6.5000000000000009 12.500000000000002 6.5000000000000009
decision_type=2 2 2 2 2 2 2 2 2 2 2 2 2 2 2 2 2 2 2 2 2 2 2 2 2 2 2 2 2 2
left_child=1 19 16 10 -5 -6 -3 15 14 -7 11 17 -11 -14 -9 -8 -2 -4 25 20 21 -1 -12 24 -24 26 -10 -28 -29 -27
right_child=2 6 3 4 5 9 7 8 18 12 22 -13 13 -15 -16 -17 -18 -19 -20 -21 -22 -23 23 -25 -26 29 27 28 -30 -31
leaf_value=-0.0015717451923157521 -0.054386718392707901 0.05052674746806906 -0.028926708820207172 0.03039520648076496 -0.048870322439225448 0.010035836047016557 -0.045843410545570062 -0.049074028669969329 0.037963961262547113 -0.025731702906062467 0.048099250855877705 0.027597043430658719 0.01929516229961048 -0.021637902574952763 0.0062918260682672672 0.023608837932017634 -0.023593904421453989 0.0067709243137112881 -0.07185266154536353 -0.0632289559852212 0.031555417432241044 -0.033360987171138071 0.024482268903899637 0.031665859659332149 -0.024122038959614817 0.037006039923864836 -0.018891251283003445 -0.012874479339681586 0.060597481900332706 0.013910598884050815
leaf_weight=1578.8064749240875 272.15900905430317 378.22733053565025 354.65788406133652 300.89772327244282 374.59146077930927 454.01934865117073 201.81527681648731 83.402128547430038 293.68226718902588 1173.3143593519926 188.99375857412815 178.93782150745392 293.6217335164547 348.52170704305172 398.6594455987215 53.90753385424614 940.15383836627007 276.23670653998852 20.223165556788445 55.213667362928391 136.1876967549324 306.26288613677025 198.09467794001102 334.02200286090374 209.12215635180473 1246.9000024944544 288.5268353074789 84.268453419208527 83.226492986083031 430.99404995143414
leaf_count=6405 1189 1967 1491 1353 1625 1909 851 348 1340 4868 819 742 1200 1425 1679 222 3877 1133 88 231 622 1292 853 1432 870 5634 1210 345 363 1901
internal_value=0 0.0102825 -0.00977264 -0.00440742 -0.0124522 -0.0173283 0.0196106 0.01594 0.0200546 -0.012122 0.00920791 -0.00426082 -0.0176634 -0.00292115 -0.0032871 -0.0312026 -0.0305068 -0.0132965 0.0246514 -0.0057272 -0.00415645 -0.00673647 0.0209334 0.0140069 -0.00047799 0.0254553 0.0128812 -0.00327228 0.023633 0.0310736
internal_weight=0 5640.3 5897.34 4685.03 2944.97 2644.07 3563.83 3185.61 2929.88 2269.48 1740.07 809.832 1815.46 642.143 482.062 255.723 1212.31 630.895 2447.82 2076.47 2021.26 1885.07 930.233 741.239 407.217 2427.6 749.704 456.022 167.495 1677.89
internal_count=49284 24498 24786 19720 12380 11027 15948 13981 12908 9402 7340 3366 7493 2625 2027 1073 5066 2624 10881 8550 8319 7697 3974 3155 1723 10793 3258 1918 708 7535
is_linear=0
shrinkage=0.05


Tree=17
num_leaves=31
num_cat=0
split_feature=5 15 14 15 11 13 14 11 12 12 11 12 0 7 14 11 15 10 14 14 7 12 8 14 1 13 9 7 0 0
split_gain=369.701 363.024 364.047 213.381 199.103 207.034 174.441 191.245 163.737 148.178 139.651 128.175 105.445 92.8264 78.0212 78.9391 73.7037 70.97 70.4468 67.7416 63.2179 63.0988 62.6947 61.7113 60.475 60.1795 57.2888 54.307 45.1436 41.3148
threshold=2.5000000000000004 2.5000000000000004 24.500000000000004 5.5000000000000009 7.5000000000000009 4.5000000000000009 37.500000000000007 14.500000000000002 5.5000000000000009 12.500000000000002 5.5000000000000009 14.500000000000002 12.500000000000002 1.0000000180025095e-35 38.500000000000007 14.500000000000002 5.5000000000000009 1.0000000180025095e-35 33.500000000000007 35.500000000000007 1.0000000180025095e-35 4.5000000000000009 1.5000000000000002 31.500000000000004 55.000000000000007 1.0000000180025095e-35 1.5000000000000002 1.5000000000000002 10.500000000000002 5.5000000000000009
decision_type=2 2 2 2 2 2 2 2 2 2 2 2 2 2 2 2 2 2 2 2 2 2 2 2 2 2 2 2 2 2
left_child=6 13 3 4 -3 -6 7 22 10 20 -4 24 14 -2 15 17 19 -10 21 26 -9 -18 -1 -17 28 -15 -12 -13 -7 -19
right_child=1 2 8 -5 5 11 -8 9 12 -11 16 27 -14 25 -16 23 18 29 -20 -21 -22 -23 -24 -25 -26 -27 -28 -29 -30 -31
leaf_value=-0.041157495238041603 -0.0032196560566140871 -0.051835427030219872 -0.010394850445509266 -0.042669953202644897 -0.056921346436607338 0.0084766237538783564 -0.0033028840923072819 -0.014818191133859663 -0.014718498254219371 -0.053696751555914225 0.031274637459027296 -0.036365575227077451 -0.062071286150501961 -0.010595432224123994 0.017183095755789978 0.033044249941204827 -0.019703915505123258 0.024385819989032123 0.023623080502522698 0.056641105427530369 0.027596093148168965 0.020994219528861158 0.019083792814935246 -0.0094882922886282191 0.018353347185683953 0.049805581092342809 -0.023073164059537077 0.0042595538068218551 -0.056919037015405842 -0.0061033653519463223
leaf_weight=998.98776876926422 113.78823655843735 209.46268019080162 352.59765395522118 513.08928941190243 144.59699387848377 57.827022731304169 1740.6901050508022 132.82597343623638 1069.1148889809847 104.77646039426327 429.46706964075565 211.61327865719795 64.728386715054512 44.23323418200016 671.56982026994228 240.3836140781641 211.9490732550621 220.96233719587326 1039.5648928284645 263.54336977005005 259.46904034912586 172.9550209492445 45.141524270176888 132.1760688573122 966.70292910933495 609.04971873760223 54.660818070173264 134.58081087470055 48.542986825108528 223.493348762393
leaf_count=4206 485 885 1468 2180 617 247 7074 559 4465 447 1906 906 273 210 2884 1069 895 919 4501 1238 1146 738 184 589 4147 3088 236 570 211 941
internal_value=0 0.00570797 0.00232862 -0.0142732 -0.006057 7.45284e-05 -0.0141497 -0.0264005 0.00970331 -0.000873243 0.018792 0.00588135 0.000953149 0.0384567 0.00254813 -0.00266276 0.0235299 -0.00773765 0.0168572 0.0362427 0.0132352 -0.00141638 -0.038553 0.0179546 0.014416 0.0457159 0.0251385 -0.0205728 -0.0213673 0.00905441
internal_weight=0 8200.65 7433.58 2286.42 1773.33 1563.86 3281.89 1541.2 5147.17 497.071 2524.74 1419.27 2622.43 767.071 2557.7 1886.13 2172.14 1513.57 1424.47 747.671 392.295 384.904 1044.13 372.56 1073.07 653.283 484.128 346.194 106.37 444.456
internal_count=49284 35668 31885 9763 7583 6698 13616 6542 22122 2152 10982 6081 11140 3783 10867 7983 9514 6325 6134 3380 1705 1633 4390 1658 4605 3298 2142 1476 458 1860
is_linear=0
shrinkage=0.05


Tree=18
num_leaves=31
num_cat=0
split_feature=6 5 16 15 15 16 11 14 16 14 12 11 0 1 12 12 1 11 3 16 1 15 0 15 16 3 15 0 14 11
split_gain=407.347 368.661 178.89 233.227 164.577 267.974 162.676 166.292 120.121 114.764 125.999 95.3541 92.3896 92.182 86.5103 86.0075 85.7001 76.3171 124.137 74.193 67.1262 64.1891 63.8026 63.2756 84.6365 65.0697 61.327 73.9909 59.1147 62.4609
threshold=3.5000000000000004 3.5000000000000004 4.5000000000000009 3.5000000000000004 2.5000000000000004 2.5000000000000004 16.500000000000004 24.500000000000004 2.5000000000000004 16.500000000000004 10.500000000000002 3.5000000000000004 15.500000000000002 85.000000000000014 10.500000000000002 13.500000000000002 75.000000000000014 8.5000000000000018 235.00000000000003 3.5000000000000004 75.000000000000014 3.5000000000000004 13.500000000000002 5.5000000000000009 4.5000000000000009 305.00000000000006 4.5000000000000009 8.5000000000000018 24.500000000000004 10.500000000000002
decision_type=2 2 2 2 2 2 2 2 2 2 2 2 2 2 2 2 2 2 2 2 2 2 2 2 2 2 2 2 2 2
left_child=1 6 3 20 -3 -6 7 -1 -8 -4 13 -7 23 -11 17 16 -5 18 -9 21 22 -19 -2 -13 28 -26 -18 -28 -25 -30
right_child=2 4 9 15 5 11 8 14 -10 10 -12 12 -14 -15 -16 -17 26 19 -20 -21 -22 -23 -24 24 25 -27 27 -29 29 -31
leaf_value=-0.041160798192720324 0.0035036059233073216 0.048721989288726071 0.048591633206487655 -0.05215724847002793 -0.034706885445519531 -0.03087648402208051 -0.0073677000952117617 -0.003774653265133317 0.04494561255014598 -0.010826522382108322 -0.034587477561600792 0.031170072147291873 -0.057334191437408345 0.013959431447546029 -0.074770722633616934 -0.054328996701336674 0.0041736464965650266 0.059278840496936019 -0.041908612640088647 0.015488595234030676 0.011515211755043844 -0.035164837132872169 -0.070604089242072191 -0.061714118533870967 0.017545832018903144 0.056374259338578217 -0.0082945959296630966 -0.043480493760313932 -0.026654464976674893 0.023465354467290499
leaf_weight=329.88265246152878 62.78247494995594 400.73508624732494 106.09265691041946 252.82539688050747 252.43679393827915 92.777536749839783 181.39243486523628 1924.2402848601341 277.76121866703033 788.16792893409729 298.60179138183594 1077.9701560139656 37.482236325740814 715.809286236763 42.403410539031029 383.87595078349113 213.66154655814171 20.786118820309639 240.03254123032093 771.06199696660042 476.2270971685648 133.79241870343685 54.045600667595863 44.552968427538872 1286.9432642757893 117.77384641766548 280.74841938912868 319.38024650514126 113.54509247839451 137.36694100499153
leaf_count=1419 257 2184 449 1137 1058 387 777 7837 1312 3188 1225 4939 157 2974 177 1701 890 90 1023 3257 2043 575 225 186 5681 529 1160 1398 462 587
internal_value=0 0.00689081 -0.0129526 -0.0232332 0.0185359 0.0147089 -0.00368592 -0.00739457 0.0242788 -0.00194559 -0.00492001 0.018998 0.0206414 0.000970209 -0.00383845 -0.034034 -0.0267298 -0.00286504 -0.00800397 0.00915048 0.00318348 -0.022465 -0.0307792 0.0216934 0.0156849 0.0208013 -0.0188301 -0.02702 -0.00863949 0.000784659
internal_weight=0 7482.94 3952.22 2043.55 3561.58 3160.85 3921.35 3462.2 459.154 1908.67 1802.58 2908.41 2815.63 1503.98 3132.32 1450.49 1066.62 3089.91 2164.27 925.641 593.055 154.579 116.828 2778.15 1700.18 1404.72 813.79 600.129 295.465 250.912
internal_count=49284 32637 16647 8811 16170 13986 16467 14378 2089 7836 7387 12928 12541 6162 12959 6286 4585 12782 8860 3922 2525 665 482 12384 7445 6210 3448 2558 1235 1049
is_linear=0
shrinkage=0.05


Tree=19
num_leaves=31
num_cat=0
split_feature=6 11 16 13 16 15 11 16 16 15 14 16 0 6 0 15 0 4 16 11 8 10 15 0 16 1 14 11 13 15
split_gain=373.102 261.205 237.223 227.062 214.604 227.546 185.787 131.986 128.31 113.317 107.02 95.0969 87.983 76.1918 79.1775 75.7359 92.9818 75.5308 75.002 75.6518 74.7472 73.176 69.6494 61.0372 58.5079 56.9289 88.054 56.8973 55.9818 60.7637
threshold=2.5000000000000004 14.500000000000002 4.5000000000000009 37.500000000000007 3.5000000000000004 3.5000000000000004 10.500000000000002 5.5000000000000009 1.5000000000000002 3.5000000000000004 15.500000000000002 3.5000000000000004 13.500000000000002 3.5000000000000004 5.5000000000000009 4.5000000000000009 7.5000000000000009 1.5000000000000002 1.5000000000000002 9.5000000000000018 1.5000000000000002 1.5000000000000002 2.5000000000000004 5.5000000000000009 1.5000000000000002 95.000000000000014 38.500000000000007 19.500000000000004 7.5000000000000009 4.5000000000000009
decision_type=2 2 2 2 2 2 2 2 2 2 2 2 2 2 2 2 2 2 2 2 2 2 2 2 2 2 2 2 2 2
left_child=1 2 9 -4 5 18 7 20 27 17 -8 -11 13 -12 -15 -10 -17 24 -2 -20 21 -6 -16 -13 -1 -9 -27 -3 -7 -30
right_child=4 8 3 -5 6 28 10 25 15 11 12 23 -14 14 22 16 -18 -19 19 -21 -22 -23 -24 -25 -26 26 -28 -29 29 -31
leaf_value=0.0018175019299602885 -0.029177200915222159 -0.056502461766376758 0.025649188081877834 -0.0014494513247959753 -0.034094435577053273 -0.062235080922590058 0.039648039288675767 -0.0082701228685229614 0.04447737847313437 -0.048033583478243082 0.02262704941005797 -0.030699281880809795 -0.066870749502065618 0.021578666722815078 0.065993842566989327 0.031863182237073059 -0.019918979502659809 -0.038216718788259503 -0.034242401101480226 0.017180361840217245 0.0079769831525957988 0.015274621765463379 -0.012919997369090198 0.0086226128613274486 0.046995122345590383 4.9863627746654659e-05 0.052106312827696302 0.019772010346880985 -0.013476105340020906 -0.041500428699970816
leaf_weight=275.518913179636 175.90677562355995 58.589362904429436 1399.7877549529076 1726.4036542028189 858.56123250722885 191.71584321558475 252.73415994644165 763.24988228082657 700.49954587221146 325.170733705163 495.17828990519047 202.36540919542313 41.94067819416523 275.656194627285 29.105857595801353 325.63910955190659 118.14401595294476 86.831385403871536 85.78833270072937 430.13852712512016 152.31569068133831 82.248853206634521 710.79786278307438 192.62760651111603 96.85917404294014 280.75716787576675 114.3084035217762 41.959733128547668 286.0072752982378 597.5401152074337
leaf_count=1120 750 250 6310 7086 3561 886 1116 3099 3581 1426 2194 841 176 1136 140 1528 525 384 360 1864 628 347 2956 809 449 1164 480 189 1244 2685
internal_value=0 0.00930796 0.00347567 0.0106843 -0.00880862 -0.0233513 -0.00247408 -0.0120557 0.0294804 -0.0156324 0.00947474 -0.0280084 0.00456335 0.00654648 -0.00129427 0.0342389 0.0180777 0.00377661 -0.000983084 0.00862978 -0.0245176 -0.0297784 -0.00981574 -0.011523 0.0135686 -0.00029524 0.0151119 -0.0246727 -0.0377432 -0.0324289
internal_weight=0 5550.4 4305.56 3126.19 5823.95 1767.1 4056.85 2251.44 1244.83 1179.37 1805.41 720.164 1552.68 1510.74 1015.56 1144.28 443.783 459.209 691.834 515.927 1093.13 940.81 739.904 394.993 372.378 1158.32 395.066 100.549 1075.26 883.547
internal_count=49284 24498 18425 13396 24786 7789 16997 9279 6073 5029 7718 3076 6602 6426 4232 5634 2053 1953 2974 2224 4536 3908 3096 1650 1569 4743 1644 439 4815 3929
is_linear=0
shrinkage=0.05


Tree=20
num_leaves=31
num_cat=0
split_feature=6 11 8 4 2 12 11 0 15 2 3 3 13 13 0 15 13 12 13 3 6 0 12 14 15 3 11 9 12 3
split_gain=339.913 306.35 171.227 159.019 158.393 131.384 120.427 119.444 106.263 99.7073 88.4072 99.3791 75.5471 72.5604 71.0072 70.2344 71.0067 67.5523 77.2531 66.4672 60.4333 90.8677 59.2964 76.7249 54.9448 53.1425 51.4045 55.9754 52.166 57.1165
threshold=3.5000000000000004 14.500000000000002 1.5000000000000002 2.5000000000000004 1.0000000180025095e-35 4.5000000000000009 9.5000000000000018 19.500000000000004 1.5000000000000002 1.0000000180025095e-35 305.00000000000006 295.00000000000006 6.5000000000000009 12.500000000000002 5.5000000000000009 4.5000000000000009 8.5000000000000018 3.5000000000000004 37.500000000000007 245.00000000000003 1.0000000180025095e-35 2.5000000000000004 10.500000000000002 15.500000000000002 5.5000000000000009 225.00000000000003 8.5000000000000018 1.0000000180025095e-35 4.5000000000000009 165.00000000000003
decision_type=2 2 2 2 2 2 2 2 2 2 2 2 2 2 2 2 2 2 2 2 2 2 2 2 2 2 2 2 2 2
left_child=1 2 3 17 14 -6 25 9 -7 -3 11 12 -10 -8 24 -11 -17 18 -1 22 21 -19 -14 -24 -2 -5 27 -22 -28 -30
right_child=4 7 -4 6 5 8 13 -9 10 15 -12 -13 19 -15 -16 16 -18 20 -20 -21 26 -23 23 -25 -26 -27 28 -29 29 -31
leaf_value=0.035565100168827676 0.073902476726099203 0.0069921634749920379 0.024727916516901063 -0.0049123710632253308 0.018328259596985204 0.052767172698241431 -0.052068096482382156 -0.070855991026734594 -0.043252732027301288 0.04298966664060113 -0.04582188126101841 0.069176353739524105 0.0027052694168241149 0.0025242740691665635 -0.033201134660737437 -0.036539805951500921 0.025359257285258341 0.0025026891935614956 -0.0049720550754899394 -0.088055383783966754 -0.03057074180499017 0.040048457766980676 0.0022642931268536111 -0.033462181155995606 -0.013371126504426643 -0.050322388084480821 0.028799508165538404 -0.0062158687675705976 0.0052274700771551622 -0.027077309944031153
leaf_weight=290.79706411063671 18.692171111702919 483.79352200031281 652.17402291297913 80.053829327225685 515.27314874529839 65.001813888549805 70.676811948418617 32.24350506067276 160.23836968839169 776.16528105735779 177.62364421784878 39.95465125143528 859.66131164133549 438.48238770663738 933.0403203368187 52.027011558413506 423.17793492972851 1036.6748726814985 197.25309045612812 24.947693273425102 302.20713056623936 190.80997912585735 269.15060052275658 340.2597973793745 512.45997805893421 330.09164606034756 168.0572392642498 1075.5792260766029 625.14137428998947 175.16448573768139
leaf_count=1345 78 2213 2892 340 2176 314 307 144 698 3968 770 169 3590 1902 4062 227 1962 4226 811 105 1270 846 1165 1436 2084 1436 764 4499 2730 755
internal_value=0 0.00633509 0.000636875 -0.00251743 -0.0118806 -0.00411051 -0.0212959 0.0244967 -0.0100801 0.0262686 -0.0122625 -0.00874412 -0.0106261 -0.00505374 -0.0248934 0.033721 0.0185823 0.00173281 0.0191814 -0.00712679 -0.000650135 0.0083391 -0.00575247 -0.0176833 -0.0102998 -0.0414591 -0.00535322 -0.0115579 0.00347482 -0.00184314
internal_weight=0 7400.57 5633.16 4980.99 3916.3 2452.11 919.305 1767.41 1936.84 1735.16 1871.84 1694.21 1654.26 509.159 1464.19 1251.37 475.205 4061.68 488.05 1494.02 3573.63 1227.48 1469.07 609.41 531.152 410.145 2346.15 1377.79 968.363 800.306
internal_count=49284 32637 24123 21231 16647 10423 3985 8514 8247 8370 7933 7163 6994 2209 6224 6157 2189 17246 2156 6296 15090 5072 6191 2601 2162 1776 10018 5769 4249 3485
is_linear=0
shrinkage=0.05


Tree=21
num_leaves=31
num_cat=0
split_feature=16 11 16 6 3 11 4 7 11 8 14 13 11 3 6 10 3 14 3 7 7 16 3 8 3 16 4 16 8 8
split_gain=326.988 393.627 380.315 242.986 145.43 113.111 176.98 127.286 101.469 91.5495 89.2878 92.7582 83.298 80.1466 75.3893 85.8223 74.1435 70.4155 93.2172 84.1149 65.8534 59.0705 58.5653 55.7227 54.2231 53.6494 59.0317 52.931 52.5216 51.9233
threshold=2.5000000000000004 10.500000000000002 5.5000000000000009 3.5000000000000004 85.000000000000014 17.500000000000004 2.5000000000000004 1.0000000180025095e-35 4.5000000000000009 1.5000000000000002 15.500000000000002 8.5000000000000018 15.500000000000002 105.00000000000001 1.0000000180025095e-35 1.0000000180025095e-35 55.000000000000007 34.500000000000007 125.00000000000001 1.0000000180025095e-35 1.0000000180025095e-35 5.5000000000000009 155.00000000000003 1.0000000180025095e-35 115.00000000000001 4.5000000000000009 1.5000000000000002 4.5000000000000009 1.5000000000000002 1.0000000180025095e-35
decision_type=2 2 2 2 2 2 2 2 2 2 2 2 2 2 2 2 2 2 2 2 2 2 2 2 2 2 2 2 2 2
left_child=5 2 8 12 28 6 16 -7 -2 14 27 -12 23 -6 -10 -16 -1 -15 24 -20 -18 -14 -11 -3 -19 -13 -27 -5 -4 -22
right_child=1 3 4 10 13 7 -8 -9 9 22 11 25 21 17 15 -17 20 18 19 -21 29 -23 -24 -25 -26 26 -28 -29 -30 -31
leaf_value=0.0016195833025091173 -0.05082699216203973 0.0061161581292620212 -0.0076807729480494807 0.012982138239392342 0.051792930606538529 -0.038490299502576944 -0.059954823214825204 0.019644407101845462 0.032549728461017738 -0.016923257515627801 -0.048573631100182708 -0.014760669114942915 0.041654088228757616 -0.01416980485177389 -0.030317230910587103 -0.0049880572501428454 -0.047897951704873133 -0.0089570425934262527 0.014870498986485509 0.048490499107818205 -0.026280631379487031 0.01009115933227113 0.032559907857068221 0.026142250978267702 -0.097986936975381259 0.013697141030146255 -0.027798650105514008 0.061863007863256915 0.018765202614527909 0.014385723255533573
leaf_weight=346.45919831097126 253.17225155234337 611.54095414280891 1480.6224680244923 315.6827996969223 148.41112579405308 135.94504092633724 317.09920099377632 306.30588491261005 62.747694760560989 104.32169768214226 116.28081324696541 462.28093481063843 852.87857106328011 201.86133626103401 1203.3975469619036 463.12827636301517 237.96789970993996 90.838295727968216 853.68177963793278 237.88844728469849 266.97451865673065 179.42184154689312 140.09405402839184 804.0881407558918 21.068881273269653 565.38967344164848 101.02091808617115 67.165760770440102 215.00278390944004 111.18177570402622
leaf_count=1440 1079 2739 6032 1367 651 596 1440 1436 272 439 513 1974 4320 842 5085 1978 1104 378 3634 1081 1187 907 593 3648 89 2351 418 293 905 493
internal_value=0 0.00364657 -0.00510988 0.0154119 0.00579817 -0.0200245 -0.027558 0.00177418 -0.0210266 -0.017204 0.000440794 -0.00605297 0.0253673 0.0168484 -0.0212525 -0.0232782 -0.0168857 0.0131581 0.0177418 0.0221974 -0.0272916 0.0361682 0.0114395 0.0174911 -0.0257188 -0.00167238 0.00740681 0.0215576 -0.00432746 -0.0143243
internal_weight=0 9551.99 5476.24 4075.75 3249.38 1721.93 1279.68 442.251 2226.86 1973.69 1627.82 1244.97 2447.93 1553.75 1729.27 1666.53 962.583 1405.34 1203.48 1091.57 616.124 1032.3 244.416 1415.63 111.907 1128.69 666.411 382.849 1695.63 378.156
internal_count=49284 41588 23058 18530 13612 7696 5664 2032 9446 8367 6916 5256 11614 6675 7335 7063 4224 6024 5182 4715 2784 5227 1032 6387 467 4743 2769 1660 6937 1680
is_linear=0
shrinkage=0.05


Tree=22
num_leaves=31
num_cat=0
split_feature=16 11 11 16 0 6 7 3 3 13 16 14 14 12 6 10 12 3 14 3 7 8 12 13 16 1 11 8 3 3
split_gain=302.127 280.831 260.72 218.12 170.903 142.438 141.821 137.786 132.044 99.4534 102.039 89.9099 87.0463 88.1405 86.3126 92.9488 77.0811 74.0109 63.8831 84.4872 78.319 63.6257 71.1743 63.3803 75.2025 57.2294 55.5944 72.782 49.4849 48.9361
threshold=3.5000000000000004 10.500000000000002 16.500000000000004 5.5000000000000009 17.500000000000004 3.5000000000000004 1.0000000180025095e-35 55.000000000000007 85.000000000000014 26.500000000000004 1.5000000000000002 2.5000000000000004 15.500000000000002 10.500000000000002 1.0000000180025095e-35 1.0000000180025095e-35 11.500000000000002 105.00000000000001 34.500000000000007 125.00000000000001 1.0000000180025095e-35 1.5000000000000002 6.5000000000000009 7.5000000000000009 1.5000000000000002 45.000000000000007 14.500000000000002 1.0000000180025095e-35 255.00000000000003 205.00000000000003
decision_type=2 2 2 2 2 2 2 2 2 2 2 2 2 2 2 2 2 2 2 2 2 2 2 2 2 2 2 2 2 2
left_child=2 3 7 14 5 26 23 -1 -5 10 -9 -12 -7 25 -2 21 -8 -10 29 -20 28 -16 -23 -4 -25 -14 27 -3 -21 -19
right_child=1 4 6 8 -6 12 16 9 17 -11 11 -13 13 -15 15 -17 -18 18 19 20 -22 22 -24 24 -26 -27 -28 -29 -30 -31
leaf_value=0.0020173745974806398 0.03604827660817761 0.0020546094953154282 -0.052065996338220732 -0.0041105222939127684 -0.07624462823584105 0.036081179725265922 0.029699286400880737 -0.052765484461173351 0.049932040255921663 -0.063153597194415004 0.071591843536029043 -0.021039497011694153 -0.034372726258389122 -0.025951654206463195 -0.029153150391192591 0.0016374188694230471 -0.011833706954755985 -0.023829596742106027 -0.024321638830025263 0.015887936583456132 0.046832919219962993 0.028693517402970027 -0.038549858139096484 -0.072618159019354936 0.017355956790144674 0.012156311516738729 0.035987051590065988 0.029740794180765258 -0.070709199258983876 0.044773976853053891
leaf_weight=429.82670792937279 76.174381986260414 393.9479214400053 108.62578304111958 1695.7484362721443 48.627654954791069 188.76083575189114 522.9965685904026 274.50145319104195 146.29921308159828 196.36613023281097 26.795541524887085 1170.3582642823458 73.078423112630844 261.00919699668884 1149.7914174348116 438.04506738483906 142.05554729700089 171.587023422122 112.38072966039181 834.02990035712719 234.09029585123062 106.02945804595947 62.576300993561745 29.291129723191261 112.12211126089096 690.69902519881725 883.34429158270359 597.26054897904396 16.829918310046196 30.635195255279541
leaf_count=1804 328 1771 480 6937 212 825 2526 1257 651 939 114 5195 300 1095 4806 1847 636 713 467 3563 1081 449 259 127 499 2894 4565 2744 71 129
internal_value=0 0.00500025 -0.0135114 -0.00227001 0.0167612 0.0182257 0.00875846 -0.0232256 0.00552451 -0.0297303 -0.0252706 -0.0189662 0.00487953 -0.000867666 -0.0160572 -0.018317 0.0208278 0.0160938 0.0125566 0.0169467 0.0212214 -0.024947 0.00373683 -0.0233435 -0.00128051 0.0077044 0.0268658 0.0187371 0.0141751 -0.0134367
internal_weight=0 8210.95 3012.94 5074.22 3136.73 3088.1 915.091 2097.85 3241.6 1668.02 1471.66 1197.15 1213.55 1024.79 1832.62 1756.44 665.052 1545.85 1399.55 1197.33 1084.95 1318.4 168.606 250.039 141.413 763.777 1874.55 991.208 850.86 202.222
internal_count=49284 35707 13577 21301 14406 14194 4268 9309 13612 7505 6566 5309 5114 4289 7689 7361 3162 6675 6024 5182 4715 5514 708 1106 626 3194 9080 4515 3634 842
is_linear=0
shrinkage=0.05


Tree=23
num_leaves=31
num_cat=0
split_feature=6 11 1 16 15 15 16 13 16 12 13 15 15 12 0 16 15 15 16 3 13 15 16 4 10 11 8 3 3 0
split_gain=281.497 193.703 175.82 149.549 148.83 145.112 207.978 140.153 136.384 129.915 114.063 84.5353 79.8835 76.7116 73.8077 73.7565 104.207 65.3716 59.4308 59.3096 57.722 71.3591 55.2121 66.0144 55.4962 53.6298 53.2562 52.3378 97.6583 64.3884
threshold=2.5000000000000004 11.500000000000002 85.000000000000014 4.5000000000000009 3.5000000000000004 2.5000000000000004 3.5000000000000004 37.500000000000007 1.5000000000000002 10.500000000000002 5.5000000000000009 2.5000000000000004 5.5000000000000009 3.5000000000000004 15.500000000000002 4.5000000000000009 3.5000000000000004 5.5000000000000009 3.5000000000000004 325.00000000000006 19.500000000000004 3.5000000000000004 2.5000000000000004 1.5000000000000002 2.5000000000000004 19.500000000000004 1.0000000180025095e-35 85.000000000000014 145.00000000000003 1.5000000000000002
decision_type=2 2 2 2 2 2 2 2 2 2 2 2 2 2 2 2 2 2 2 2 2 2 2 2 2 2 2 2 2 2
left_child=1 3 10 4 -1 -4 13 20 25 26 -2 -10 -11 19 22 16 -12 -17 -6 -7 21 -5 23 -13 -24 -3 -8 29 -29 -9
right_child=2 8 5 7 18 6 9 27 11 12 15 14 -14 -15 -16 17 -18 -19 -20 -21 -22 -23 24 -25 -26 -27 -28 28 -30 -31
leaf_value=0.0067125803397920783 -0.061933370627006358 -0.050097120076681545 0.030626104041024168 0.067753099184165472 -0.054795038927873324 0.0023935690817587516 0.0022597035900948155 0.00037296448031313322 0.04965902489684635 -0.0022512017847081153 0.0068449993026680105 0.046446273163041091 -0.042479312742796288 -0.028558000479996459 -0.061921253495569442 0.017453225343006796 -0.03664430243599532 -0.012864690709772872 -0.019535893869915878 0.11471773903888693 0.024436984106629017 -0.068768111785622935 0.02641561051311166 -0.02718905245983428 -0.076306902009133176 0.019113246735853975 0.020774618625712928 0.026706390517395148 -0.0063652588992588483 -0.029144427191443015
leaf_weight=382.81456685066223 139.15543988347054 87.932339459657669 341.41983637213707 13.157248765230177 212.66539999842644 59.601474583148956 730.00053735077381 473.65812738239765 293.62109014391899 353.91906224191189 175.39120760560036 42.16871565580368 189.4728094637394 811.44772922992706 26.870287284255028 207.50012992322445 641.73035761713982 1242.174132540822 272.83609645068645 14.638631612062452 979.93881359696388 35.123658776283264 1205.2518755048513 109.40729400515556 13.293393373489378 41.060069188475609 829.9604799002409 363.40029443800449 578.68532600998878 302.90152323246002
leaf_count=1607 625 391 1626 71 998 256 3105 1898 1767 1487 756 179 808 3584 116 878 2955 5094 1135 62 4452 152 5840 463 60 189 3550 1556 2404 1220
internal_value=0 0.00818496 -0.00769487 0.0014881 -0.0165993 -0.000254834 -0.00378217 0.00720574 0.0214902 0.00477632 -0.0179938 0.0252714 -0.0162782 -0.0241071 0.0201455 -0.0152964 -0.0273095 -0.00852511 -0.0349805 0.0245416 0.0218074 -0.0315641 0.021755 -0.00670357 0.025295 -0.0280665 0.0121104 -0.00153005 0.00639181 -0.0111405
internal_weight=0 5434.79 5736.41 3615.18 868.316 3330.46 2989.04 2746.86 1819.61 2103.35 2405.95 1690.61 543.392 885.688 1396.99 2266.8 817.122 1449.67 485.501 74.2401 1028.22 48.2809 1370.12 151.576 1218.55 128.992 1559.96 1718.65 942.086 776.56
internal_count=49284 24498 24786 15493 3740 14478 12852 11753 9005 8950 10308 8425 2295 3902 6658 9683 3711 5972 2133 318 4675 223 6542 642 5900 580 6655 7078 3960 3118
is_linear=0
shrinkage=0.05


Tree=24
num_leaves=31
num_cat=0
split_feature=5 15 16 6 14 16 11 11 0 15 16 12 13 15 13 11 15 2 7 12 14 13 12 14 12 16 0 13 14 16
split_gain=275.075 270.238 344.146 194.587 137.398 122.115 141.935 110.394 109.919 103.442 103.119 97.9461 88.3648 77.597 74.7952 73.952 73.6072 72.29 70.2235 61.0193 54.5442 53.7754 52.3727 60.6391 84.9044 58.8244 51.65 51.019 49.8318 44.1863
threshold=2.5000000000000004 2.5000000000000004 3.5000000000000004 3.5000000000000004 44.500000000000007 1.5000000000000002 13.500000000000002 4.5000000000000009 15.500000000000002 4.5000000000000009 4.5000000000000009 12.500000000000002 4.5000000000000009 5.5000000000000009 6.5000000000000009 7.5000000000000009 2.5000000000000004 1.0000000180025095e-35 1.0000000180025095e-35 14.500000000000002 25.500000000000004 1.0000000180025095e-35 4.5000000000000009 15.500000000000002 12.500000000000002 4.5000000000000009 9.5000000000000018 19.500000000000004 5.5000000000000009 5.5000000000000009
decision_type=2 2 2 2 2 2 2 2 2 2 2 2 2 2 2 2 2 2 2 2 2 2 2 2 2 2 2 2 2 2
left_child=4 18 9 7 5 -1 10 29 13 12 -7 16 -3 -9 -5 -14 -8 -16 -2 -17 -11 -20 25 -24 -25 -19 -22 -28 -21 -4
right_child=1 2 3 14 -6 6 11 8 -10 20 -12 -13 15 -15 17 19 -18 22 21 28 26 -23 23 24 -26 -27 27 -29 -30 -31
leaf_value=-0.058663431413585723 -0.0019247650830621806 -0.046791337698784088 -0.045984488255649957 -0.06345900865350583 0.0022806313740988994 -0.04225611252881676 0.061492857043311158 0.030662251661239245 -0.071676397758973387 -0.044317941204314898 -0.014272494740061715 -0.043162487138019512 -0.049682654661369591 0.013675350728662383 -0.014895630031584672 0.013234692889615757 0.0073829003991924998 -0.017028631845762084 -0.012722696774698583 0.050575931945803988 -0.027729441858669587 0.045503141774835942 0.030985407967772046 0.0013382609408200208 -0.038779195495465296 0.032506565490627227 0.04528681949247168 -0.057482224754209443 -0.035315534355568376 -0.0023785504098465023
leaf_weight=183.35105448961258 111.34381330013275 118.42969842255116 76.80970087647438 51.40406046807766 1073.0872018188238 491.52369260787964 78.983507007360458 978.89826446771622 33.785639226436615 418.38527408242226 996.90186588466167 77.462970420718193 68.235095664858818 2146.4023678600788 750.51443186402321 504.48085330426693 307.6927073597908 77.402401939034462 42.714338839054108 19.536905348300934 227.60450625419617 553.55599296092987 127.86805230379105 740.18559361994267 160.48250882327557 265.55809663236141 52.83227713406086 15.655230596661566 124.48967406153679 238.4310776591301
leaf_count=856 485 522 316 220 4347 2244 391 4782 146 1966 4072 340 305 9611 3112 2203 1366 320 210 80 1003 3088 543 3064 683 1125 233 78 558 1015
internal_value=0 0.0050419 0.0021432 0.00787028 -0.0123159 -0.0196492 -0.0159857 0.0152108 0.0180262 -0.0187293 -0.0235135 0.00815508 -0.00678095 0.0189959 -0.00386391 -0.000169899 0.0184355 -0.00242027 0.0345256 0.00503977 -0.0326961 0.0413321 0.00440653 -0.00123552 -0.00580993 0.021327 -0.0162741 0.0217953 -0.0236645 -0.0130033
internal_weight=0 7905.01 7197.39 5647.74 3209 2135.92 1952.56 3474.33 3159.09 1549.65 1488.43 464.139 835.172 3125.3 2173.42 716.743 386.676 2122.01 707.614 648.507 714.477 596.27 1371.5 1028.54 900.668 342.96 296.092 68.4875 144.027 315.241
internal_count=49284 35668 31885 24937 13616 9269 8413 15870 14539 6948 6316 2097 3668 14393 9067 3146 1757 8847 3783 2841 3280 3298 5735 4290 3747 1445 1314 311 638 1331
is_linear=0
shrinkage=0.05


Tree=25
num_leaves=31
num_cat=0
split_feature=5 6 14 11 2 0 11 11 12 12 0 4 12 1 13 10 14 0 0 14 4 6 5 14 14 0 2 13 4 12
split_gain=249.48 245.482 125.051 119.08 98.7585 96.1969 93.5916 81.2671 105.162 79.3398 79.2098 74.9063 114.734 63.8052 62.2572 68.2886 64.487 59.1439 56.3786 59.877 54.8021 46.7776 73.5805 45.9055 45.371 44.7367 43.4822 43.1628 39.8634 48.755
threshold=2.5000000000000004 3.5000000000000004 44.500000000000007 5.5000000000000009 1.0000000180025095e-35 22.500000000000004 16.500000000000004 14.500000000000002 12.500000000000002 4.5000000000000009 6.5000000000000009 2.5000000000000004 4.5000000000000009 85.000000000000014 11.500000000000002 1.0000000180025095e-35 24.500000000000004 3.5000000000000004 5.5000000000000009 10.500000000000002 2.5000000000000004 1.0000000180025095e-35 1.0000000180025095e-35 28.500000000000004 38.500000000000007 16.500000000000004 1.0000000180025095e-35 6.5000000000000009 2.5000000000000004 13.500000000000002
decision_type=2 2 2 2 2 2 2 2 2 2 2 2 2 2 2 2 2 2 2 2 2 2 2 2 2 2 2 2 2 2
left_child=2 3 7 20 24 6 11 10 25 -6 21 12 23 17 -13 16 -16 -11 -15 -20 -2 22 -1 -5 -3 -9 -8 -21 29 -29
right_child=1 4 -4 5 9 -7 26 8 -10 13 -12 14 -14 18 15 -17 -18 -19 19 27 -22 -23 -24 -25 -26 -27 -28 28 -30 -31
leaf_value=-0.056307628370136642 -0.00265159816627092 -0.021370175407646991 0.0021670182022663154 5.8664993331729072e-05 0.018985426047659289 -0.082046505724726271 0.011531233906080431 0.013845472769209076 -0.046961217540942651 0.033664525851059938 -0.040427130174255851 -0.033959455797385137 0.0092636943910301122 0.024526728161774952 -0.038136051299508054 0.027057875125608741 0.0038240104507225102 -0.029143907441285734 0.021007477207752756 -0.048686538721055002 -0.047980776769718209 -0.019195006749499258 0.061034989325283943 0.038679413462019252 0.014804079810921448 -0.074051101925421844 0.036906796725802236 0.0047413964846720318 -0.049077849713994919 -0.025877237881739464
leaf_weight=19.238905072212219 573.11957277357578 995.19553592801094 1072.884813696146 88.286932617425919 449.1126873344183 25.30787555873394 228.8299472630024 380.94469000399113 99.641845732927322 42.00497530400753 513.18562383949757 119.28302724659443 1589.5084309726954 208.6516727656126 115.24090890586376 240.34186960756779 445.73777541518211 348.03132082521915 190.93326176702976 66.701027259230614 75.456577956676483 1052.2722112834454 43.71592815220356 598.76324792206287 94.950162634253502 15.048230573534964 643.72147254645824 490.56046195328236 51.381454989314079 176.89610747992992
leaf_count=78 2443 4315 4347 441 1925 113 1131 1750 447 170 2385 543 7185 869 510 1095 1991 1514 864 297 348 4359 184 2895 386 66 3537 2091 227 778
internal_value=0 0.00481994 -0.011747 0.0119807 -0.00608665 0.0151334 0.0157377 -0.0187752 -0.00104771 0.000447309 -0.0241708 0.0117766 0.0166434 -0.00483831 -0.000258497 0.00475816 -0.00479577 -0.0223798 0.00093475 -0.00410636 -0.00792528 -0.0166903 0.0251753 0.0337166 -0.0182194 0.0105053 0.030252 -0.0102105 -0.00664034 -0.00337346
internal_weight=0 7858.02 3196.93 4743.6 3114.42 4095.02 4069.71 2124.05 495.635 2024.27 1628.41 3197.16 2276.56 1575.16 920.604 801.321 560.979 390.036 1185.12 976.472 648.576 1115.23 62.9548 687.05 1090.15 395.993 872.551 785.539 718.838 667.457
internal_count=49284 35668 13616 22232 13436 19441 19328 9269 2263 8735 7006 14660 10521 6810 4139 3596 2501 1684 5126 4257 2791 4621 262 3336 4701 1816 4668 3393 3096 2869
is_linear=0
shrinkage=0.05


Tree=26
num_leaves=31
num_cat=0
split_feature=7 6 8 6 0 11 14 5 2 13 7 0 0 4 11 0 7 3 1 14 14 11 1 3 3 13 8 3 0 14
split_gain=230.414 187.325 142.577 136.963 94.1532 94.9822 102.635 87.5327 79.3825 63.5089 58.1445 88.3595 73.9322 56.7389 54.9418 55.389 52.041 47.9861 46.2629 55.0079 44.2291 44.1037 42.571 42.0013 71.785 41.6455 45.1237 40.7292 37.5321 38.5302
threshold=1.5000000000000002 2.5000000000000004 1.0000000180025095e-35 4.5000000000000009 21.500000000000004 14.500000000000002 36.500000000000007 2.5000000000000004 1.5000000000000002 5.5000000000000009 1.0000000180025095e-35 3.5000000000000004 5.5000000000000009 1.5000000000000002 10.500000000000002 5.5000000000000009 2.5000000000000004 315.00000000000006 85.000000000000014 41.500000000000007 16.500000000000004 7.5000000000000009 75.000000000000014 95.000000000000014 295.00000000000006 17.500000000000004 1.0000000180025095e-35 75.000000000000014 9.5000000000000018 5.5000000000000009
decision_type=2 2 2 2 2 2 2 2 2 2 2 2 2 2 2 2 2 2 2 2 2 2 2 2 2 2 2 2 2 2
left_child=1 7 10 4 5 6 8 17 16 -5 12 -12 -3 21 15 -4 25 -1 19 -15 28 27 -11 -7 -25 -2 -27 -9 -13 -30
right_child=3 2 14 9 -6 23 -8 13 -10 22 11 20 -14 18 -16 -17 -18 -19 -20 -21 -22 -23 -24 24 -26 26 -28 -29 29 -31
leaf_value=-0.0025495634754821583 -0.015316205444680235 -0.019474160223458263 -0.0020355650950958128 -0.046258701818721035 -0.068795990992026171 0.049447260099963836 0.040732118056414801 -0.011380685901144393 -0.068558428122005244 -0.028231743688893959 0.046320569640140669 0.029836128072792369 -0.049988486031241917 -0.017828455947567819 0.0056883416518759408 -0.023775135953114489 0.031869084910934944 -0.032542516516990354 0.0104023044588013 0.060003574761725034 -0.026686870542315028 0.024722046474067946 0.004951738191067017 0.0082923478803880405 0.040030448418037115 -0.0070990347667277826 0.027641475476852591 0.01443116715889043 0.02236719427175065 -0.022856991575232036
leaf_weight=1807.5204018503428 278.05665595829487 463.49486438930035 758.95023590326309 84.932324126362801 30.031988084316254 248.27042560279369 216.57912281155586 210.9647965580225 37.920311942696571 115.61613863706589 56.538300186395645 66.964814439415932 347.19858027994633 373.38001538813114 924.12278172373772 477.23484529554844 151.50525310635567 143.9802198112011 442.68720875680447 24.170752584934235 559.61201709508896 694.02876529097557 589.23680986464024 326.86016948521137 391.62015575170517 187.32297185063362 186.55881482362747 554.60011595487595 61.734609037637711 198.64647829532623
leaf_count=7498 1246 1897 3157 383 135 1323 1059 869 173 494 234 295 1673 1687 4076 2113 721 665 2136 114 2417 3325 2529 1682 2084 821 849 2459 274 896
internal_value=0 -0.00424067 -0.0121328 0.0122836 0.0190857 0.0203892 0.0100369 0.00302612 0.00213552 -0.00541306 -0.0227223 -0.0142842 -0.0325426 0.00963502 -0.00353398 -0.0104282 0.00547208 -0.00476242 -0.000715857 -0.0130963 -0.0181474 0.0155937 -0.000491306 0.0317181 0.0255917 -0.00066237 0.0102357 0.00731826 -0.00354872 -0.0121346
internal_weight=0 8165.83 3914.5 2844.51 2054.73 2024.69 1057.94 4251.33 841.364 789.785 1754.19 943.496 810.693 2299.83 2160.31 1236.19 803.444 1951.5 840.238 397.551 886.958 1459.59 704.853 966.751 718.48 651.938 373.882 765.565 327.346 260.381
internal_count=49284 35785 17032 13499 10093 9958 4869 18753 3810 3406 7686 4116 3570 10590 9346 5270 3637 8163 3937 1801 3882 6653 3023 5089 3766 2916 1670 3328 1465 1170
is_linear=0
shrinkage=0.05


Tree=27
num_leaves=31
num_cat=0
split_feature=7 0 6 11 14 8 14 0 5 0 11 2 11 11 9 8 6 0 1 9 14 14 13 6 14 8 7 13 14 10
split_gain=211.742 213.46 198.654 138.09 149.679 99.9574 83.1175 78.2215 76.2784 70.0726 72.2234 54.9021 54.7091 51.2875 49.7417 46.7836 52.3068 43.7122 43.6268 43.238 42.1359 40.1555 52.4064 40.1352 39.439 39.1248 46.3437 37.9507 35.2315 35.1952
threshold=1.0000000180025095e-35 5.5000000000000009 3.5000000000000004 15.500000000000002 36.500000000000007 1.0000000180025095e-35 2.5000000000000004 21.500000000000004 3.5000000000000004 17.500000000000004 8.5000000000000018 1.5000000000000002 11.500000000000002 8.5000000000000018 1.5000000000000002 1.5000000000000002 1.0000000180025095e-35 2.5000000000000004 45.000000000000007 1.5000000000000002 43.500000000000007 5.5000000000000009 9.5000000000000018 2.5000000000000004 14.500000000000002 1.5000000000000002 2.5000000000000004 23.500000000000004 44.500000000000007 1.5000000000000002
decision_type=2 2 2 2 2 2 2 2 2 2 2 2 2 2 2 2 2 2 2 2 2 2 2 2 2 2 2 2 2 2
left_child=1 15 3 4 8 6 -3 -5 13 10 19 25 27 -2 -8 16 17 -1 -18 29 -6 -12 -23 24 -16 26 -10 -7 -20 -4
right_child=2 5 9 7 20 12 14 -9 11 -11 21 -13 -14 -15 23 -17 18 -19 28 -21 -22 22 -24 -25 -26 -27 -28 -29 -30 -31
leaf_value=0.0016675154455847278 -0.040093695682281869 0.080487320872804344 -0.031467442095395086 0.029916616727112058 0.020039034495724209 -0.048274200303371061 -0.057624175191398445 -0.076520615123867403 0.00024549295994987777 -0.051453604376948209 0.035289843256795107 -0.048034821352566856 0.00047822435710042418 -0.0066614037881739391 0.074405540195266892 0.014245359774397899 0.0095657429796524307 0.03687707257441504 -0.015364124747719225 0.0061320370935823848 0.052326693895666458 -0.01725563786455513 0.0039518781434752489 -0.043796114035820156 -0.015453240388791917 0.033133322650633755 0.03289948105184607 -0.014092980650358409 0.0050494920946999276 0.011838587105744964
leaf_weight=1074.2299678474665 165.42482322454453 13.607862681150435 384.64480319619179 1105.2308077961206 689.92796167731285 133.46787695586681 311.51135703921318 17.535391747951508 818.702541872859 76.422722592949867 84.463647529482841 45.204236567020416 359.69105803966522 374.2194177955389 14.575986102223395 411.72036385536194 271.68463280797005 96.029902830719948 1331.0089800208807 135.51529188454151 118.38452495634556 356.44677835702896 1593.9082947671413 138.309983253479 75.252574011683464 137.4308920353651 125.28468266129494 207.38200318813324 251.26514564454556 53.434117913246155
leaf_count=4396 729 57 1650 5977 3242 640 1525 83 3714 350 383 207 1613 1627 64 1797 1156 422 5557 570 592 1605 6839 654 347 653 641 932 1033 229
internal_value=0 -0.00801095 0.00602963 0.0137109 0.00711224 -0.0256698 -0.0415559 0.0282543 -0.00145257 -0.00426228 -0.00287964 0.00595137 -0.0131237 -0.0169099 -0.0446334 -0.0015671 -0.00371983 0.00455676 -0.00894419 -0.0185501 0.0247678 0.00153769 7.59938e-05 -0.0268951 -0.000872351 0.00820805 0.00457929 -0.0274775 -0.0121224 -0.0261852
internal_weight=0 4689.74 6282.18 3597.35 2474.58 1253.8 553.258 1122.77 1666.27 2684.84 2608.41 1126.62 700.541 539.644 539.65 3435.94 3024.22 1170.26 1853.96 573.594 808.312 2034.82 1950.36 228.139 89.8286 1081.42 943.987 340.85 1582.27 438.079
internal_count=49284 20193 29091 17465 11405 5832 2647 6060 7571 11626 11276 5215 3185 2356 2590 14361 12564 4818 7746 2449 3834 8827 8444 1065 411 5008 4355 1572 6590 1879
is_linear=0
shrinkage=0.05


Tree=28
num_leaves=31
num_cat=0
split_feature=16 11 16 6 3 14 11 11 4 7 14 8 3 3 3 3 16 10 6 14 6 14 3 7 3 3 4 7 14 1
split_gain=224.462 262.927 260.743 143.766 102.06 82.5182 80.7197 79.5751 152.826 84.8759 78.1039 70.7418 68.4969 64.1632 125.56 115.526 63.0336 55.2025 70.2858 52.7792 64.8546 50.4577 74.6558 64.9966 48.9269 48.2117 48.0345 47.7384 46.7573 46.097
threshold=2.5000000000000004 10.500000000000002 5.5000000000000009 3.5000000000000004 85.000000000000014 16.500000000000004 4.5000000000000009 17.500000000000004 2.5000000000000004 1.0000000180025095e-35 15.500000000000002 1.5000000000000002 105.00000000000001 275.00000000000006 165.00000000000003 175.00000000000003 4.5000000000000009 1.0000000180025095e-35 1.0000000180025095e-35 1.5000000000000002 3.5000000000000004 34.500000000000007 125.00000000000001 1.0000000180025095e-35 115.00000000000001 155.00000000000003 1.5000000000000002 1.0000000180025095e-35 28.500000000000004 125.00000000000001
decision_type=2 2 2 2 2 2 2 2 2 2 2 2 2 2 2 2 2 2 2 2 2 2 2 2 2 2 2 2 2 2
left_child=7 2 6 5 -4 -3 -2 8 19 -9 -5 17 -6 14 -7 -16 -12 18 -8 -1 -21 28 24 -24 -23 -13 -18 -22 -14 -15
right_child=1 3 4 10 12 13 11 9 -10 -11 16 25 21 29 15 -17 26 -19 -20 20 27 22 23 -25 -26 -27 -28 -29 -30 -31
leaf_value=0.085133789270861696 -0.044667351969233167 0.049593252108563878 -0.003527573192252902 0.021408554540117967 0.047415346672027167 0.016430846734183598 0.039112241043664182 -0.031921305974923431 -0.054787507437027941 0.016637919140963377 -0.017673669621151585 -0.014604619813162557 0.038244809742831981 0.013327651784862025 -0.099541118757045147 -0.0046241756902756347 0.010768855053981985 -0.0031826552040155002 -0.025640069353106584 -0.0033045266902839172 -0.05547241046450227 -0.0079367467025069343 0.012612101652656478 0.042991512152941495 -0.092180520095284615 0.030747057338979835 -0.025926446777197205 -0.018261188404008612 -0.023757968714522459 0.036041365120393458
